{"learner":{"attributes":{"scikit_learn":"{\"_estimator_type\": \"classifier\"}"},"feature_names":["home_elo","away_elo","elo_difference","home_continent_encoded","away_continent_encoded"],"feature_types":["float","float","float","int","int"],"gradient_booster":{"model":{"cats":{"enc":[],"feature_segments":[],"sorted_idx":[]},"gbtree_model_param":{"num_parallel_tree":"1","num_trees":"300"},"iteration_indptr":[0,3,6,9,12,15,18,21,24,27,30,33,36,39,42,45,48,51,54,57,60,63,66,69,72,75,78,81,84,87,90,93,96,99,102,105,108,111,114,117,120,123,126,129,132,135,138,141,144,147,150,153,156,159,162,165,168,171,174,177,180,183,186,189,192,195,198,201,204,207,210,213,216,219,222,225,228,231,234,237,240,243,246,249,252,255,258,261,264,267,270,273,276,279,282,285,288,291,294,297,300],"tree_info":[0,1,2,0,1,2,0,1,2,0,1,2,0,1,2,0,1,2,0,1,2,0,1,2,0,1,2,0,1,2,0,1,2,0,1,2,0,1,2,0,1,2,0,1,2,0,1,2,0,1,2,0,1,2,0,1,2,0,1,2,0,1,2,0,1,2,0,1,2,0,1,2,0,1,2,0,1,2,0,1,2,0,1,2,0,1,2,0,1,2,0,1,2,0,1,2,0,1,2,0,1,2,0,1,2,0,1,2,0,1,2,0,1,2,0,1,2,0,1,2,0,1,2,0,1,2,0,1,2,0,1,2,0,1,2,0,1,2,0,1,2,0,1,2,0,1,2,0,1,2,0,1,2,0,1,2,0,1,2,0,1,2,0,1,2,0,1,2,0,1,2,0,1,2,0,1,2,0,1,2,0,1,2,0,1,2,0,1,2,0,1,2,0,1,2,0,1,2,0,1,2,0,1,2,0,1,2,0,1,2,0,1,2,0,1,2,0,1,2,0,1,2,0,1,2,0,1,2,0,1,2,0,1,2,0,1,2,0,1,2,0,1,2,0,1,2,0,1,2,0,1,2,0,1,2,0,1,2,0,1,2,0,1,2,0,1,2,0,1,2,0,1,2,0,1,2,0,1,2,0,1,2,0,1,2,0,1,2,0,1,2,0,1,2,0,1,2,0,1,2],"trees":[{"base_weights":[1.6730543E-6,4.9514946E-1,-2.9256636E-1,9.14541E-1,3.6732462E-1,-1.9404304E-1,-4.4082594E-1,9.576792E-1,4.3854734E-1,5.077209E-1,2.7857903E-1,5.440713E-3,-2.3642074E-1,-4.8377594E-1,2.153107E-1,1.0973665E0,7.8794026E-1,-1.3031478E-1,5.659633E-1,5.280652E-1,4.3604053E-3,-9.6964315E-2,3.0996332E-1,-1.7654294E-1,4.104282E-2,-2.4844117E-1,2.91493E-1,-5.377442E-1,-3.6173868E-1,4.6821006E-2,5.8494264E-1,7.123912E-1,1.171399E0,-1.7106616E-1,8.298946E-1,1.1462343E-1,7.194689E-1,6.152943E-1,4.0162474E-1,-2.6556715E-1,2.107601E-1,1.4508535E-1,-2.7841067E-1,5.339539E-1,2.6952267E-1,-3.9073208E-1,-8.067655E-2,3.4899345E-1,1.7838268E-2,-1.7038973E-1,-2.9085425E-1,4.053216E-1,-8.880183E-2,-3.9125922E-1,-6.164944E-1,-3.7028039E-1,3.175643E-2,6.057682E-1,-1.03250094E-1,7.7773863E-1,-1.1719759E-1,2.9783747E-1,1.3473389E-1,3.2074142E-1,4.318298E-1,-1.1444629E-1,1.8392207E-2,-1.0677555E-2,2.5554177E-1,1.5449663E-1,-1.3028008E-1,2.9210582E-1,1.1554285E-1,7.9132706E-2,2.0872791E-1,-8.780254E-2,1.2711644E-1,-1.06856026E-1,-2.7215544E-2,1.2557547E-1,1.1794658E-2,-4.7868486E-3,1.8007024E-1,8.8377476E-2,-1.0534544E-1,-5.1439464E-2,1.6725107E-1,3.1746384E-2,8.610238E-2,-2.9142296E-2,-1.6057451E-1,3.4022667E-2,-7.2421245E-2,1.1322861E-2,1.4902885E-1,-3.882683E-2,1.7530901E-2,1.5787855E-1,-5.5885773E-2,-9.3755774E-2,-5.070952E-2,4.5044214E-2,1.7835975E-1,-1.2136338E-1,4.2481918E-2,-1.9043766E-1,-5.8631692E-2,-1.9761179E-2,-1.14949964E-1,3.1664112E-1,-1.1727715E-1,-1.5063766E-1,1.9856174E-2,2.968027E-1,5.6529497E-3],"categories":[],"categories_nodes":[],"categories_segments":[],"categories_sizes":[],"default_left":[0,0,0,0,0,0,0,0,0,0,0,0,0,0,0,0,0,0,0,0,0,0,0,0,0,0,0,0,0,0,0,0,0,0,0,0,0,0,0,0,0,0,0,0,0,0,0,0,0,0,0,0,0,0,0,0,0,0,0,0,0,0,0,0,0,0,0,0,0,0,0,0,0,0,0,0,0,0,0,0,0,0,0,0,0,0,0,0,0,0,0,0,0,0,0,0,0,0,0,0,0,0,0,0,0,0,0,0,0,0,0,0,0,0,0],"id":0,"left_children":[1,3,5,7,9,11,13,15,17,19,21,23,25,27,29,31,33,-1,35,37,39,41,43,45,47,49,51,53,55,57,59,61,63,65,67,69,71,73,75,77,79,81,83,85,87,89,91,93,95,97,99,101,-1,103,105,107,-1,109,111,113,-1,-1,-1,-1,-1,-1,-1,-1,-1,-1,-1,-1,-1,-1,-1,-1,-1,-1,-1,-1,-1,-1,-1,-1,-1,-1,-1,-1,-1,-1,-1,-1,-1,-1,-1,-1,-1,-1,-1,-1,-1,-1,-1,-1,-1,-1,-1,-1,-1,-1,-1,-1,-1,-1,-1],"loss_changes":[2.7522333E2,3.749228E1,1.7358635E1,2.9507446E0,6.617584E0,6.0815372E0,1.3518021E1,2.6841736E0,1.9682639E0,2.1367683E0,3.9736366E0,8.3007723E-1,3.8370056E0,2.7498322E0,1.836967E0,1.4329681E0,3.0032387E0,0E0,8.838682E-1,1.9671249E0,5.6422806E-1,1.2072024E0,2.6553516E0,3.990397E-1,7.586026E-1,1.8723831E0,1.033975E0,3.310852E0,5.9889984E-1,1.8785412E0,2.0504518E0,6.898098E-1,2.4743652E-1,2.0967385E-1,1.3256454E0,1.2629422E0,4.9346066E-1,3.1236115E0,1.4255857E0,3.7332773E-2,1.8760833E-1,8.920928E-1,7.5062764E-1,8.6377335E-1,7.2467804E-1,2.1204561E-1,5.1855963E-1,3.237149E-1,6.0891193E-1,2.3884187E0,9.362526E-1,4.838947E-1,0E0,8.388157E-1,1.4054184E0,5.154705E-1,0E0,2.5317473E0,1.2444476E0,1.2801819E0,0E0,0E0,0E0,0E0,0E0,0E0,0E0,0E0,0E0,0E0,0E0,0E0,0E0,0E0,0E0,0E0,0E0,0E0,0E0,0E0,0E0,0E0,0E0,0E0,0E0,0E0,0E0,0E0,0E0,0E0,0E0,0E0,0E0,0E0,0E0,0E0,0E0,0E0,0E0,0E0,0E0,0E0,0E0,0E0,0E0,0E0,0E0,0E0,0E0,0E0,0E0,0E0,0E0,0E0,0E0],"parents":[2147483647,0,0,1,1,2,2,3,3,4,4,5,5,6,6,7,7,8,8,9,9,10,10,11,11,12,12,13,13,14,14,15,15,16,16,18,18,19,19,20,20,21,21,22,22,23,23,24,24,25,25,26,26,27,27,28,28,29,29,30,30,31,31,32,32,33,33,34,34,35,35,36,36,37,37,38,38,39,39,40,40,41,41,42,42,43,43,44,44,45,45,46,46,47,47,48,48,49,49,50,50,51,51,53,53,54,54,55,55,57,57,58,58,59,59],"right_children":[2,4,6,8,10,12,14,16,18,20,22,24,26,28,30,32,34,-1,36,38,40,42,44,46,48,50,52,54,56,58,60,62,64,66,68,70,72,74,76,78,80,82,84,86,88,90,92,94,96,98,100,102,-1,104,106,108,-1,110,112,114,-1,-1,-1,-1,-1,-1,-1,-1,-1,-1,-1,-1,-1,-1,-1,-1,-1,-1,-1,-1,-1,-1,-1,-1,-1,-1,-1,-1,-1,-1,-1,-1,-1,-1,-1,-1,-1,-1,-1,-1,-1,-1,-1,-1,-1,-1,-1,-1,-1,-1,-1,-1,-1,-1,-1],"split_conditions":[-5.522257E0,-7.288925E1,3.508325E1,2E0,-3.036365E1,-4.412952E-1,1.560866E3,1.460689E3,1.4165135E3,2E0,1.452471E3,1.4829153E3,1.5990681E3,1.4952751E3,1.5969106E3,1.4886261E3,1.4651144E3,-1.3031478E-1,1.6014362E3,1.4930542E3,1.5469956E3,1.4561094E3,1.4721896E3,-4.1307664E0,1.4846442E3,7.563387E0,1.640382E3,1.5249088E3,1.7118953E3,4.311937E1,1.640382E3,1.4561094E3,1.5832839E3,1.4617952E3,1E0,1.5832839E3,2E0,1.4882072E3,1.4939113E3,1.482327E3,1.560866E3,1.4409824E3,-2.9608988E1,-2.9608988E1,1.4933995E3,1.4429546E3,-2.3951669E0,-4.1307664E0,1.4942241E3,1.4409569E3,1.5141239E3,2.3688208E1,-8.880183E-2,1.524158E3,2E0,1.4967909E3,3.175643E-2,1.6256033E3,5.9628628E1,2E0,-1.1719759E-1,2.9783747E-1,1.3473389E-1,3.2074142E-1,4.318298E-1,-1.1444629E-1,1.8392207E-2,-1.0677555E-2,2.5554177E-1,1.5449663E-1,-1.3028008E-1,2.9210582E-1,1.1554285E-1,7.9132706E-2,2.0872791E-1,-8.780254E-2,1.2711644E-1,-1.06856026E-1,-2.7215544E-2,1.2557547E-1,1.1794658E-2,-4.7868486E-3,1.8007024E-1,8.8377476E-2,-1.0534544E-1,-5.1439464E-2,1.6725107E-1,3.1746384E-2,8.610238E-2,-2.9142296E-2,-1.6057451E-1,3.4022667E-2,-7.2421245E-2,1.1322861E-2,1.4902885E-1,-3.882683E-2,1.7530901E-2,1.5787855E-1,-5.5885773E-2,-9.3755774E-2,-5.070952E-2,4.5044214E-2,1.7835975E-1,-1.2136338E-1,4.2481918E-2,-1.9043766E-1,-5.8631692E-2,-1.9761179E-2,-1.14949964E-1,3.1664112E-1,-1.1727715E-1,-1.5063766E-1,1.9856174E-2,2.968027E-1,5.6529497E-3],"split_indices":[2,2,2,4,2,2,1,0,0,3,0,1,0,1,1,1,0,0,1,0,1,1,0,2,0,2,1,0,0,2,1,1,1,0,3,1,3,1,0,0,1,0,2,2,1,0,2,2,0,1,1,2,0,0,4,1,0,0,2,3,0,0,0,0,0,0,0,0,0,0,0,0,0,0,0,0,0,0,0,0,0,0,0,0,0,0,0,0,0,0,0,0,0,0,0,0,0,0,0,0,0,0,0,0,0,0,0,0,0,0,0,0,0,0,0],"split_type":[0,0,0,0,0,0,0,0,0,0,0,0,0,0,0,0,0,0,0,0,0,0,0,0,0,0,0,0,0,0,0,0,0,0,0,0,0,0,0,0,0,0,0,0,0,0,0,0,0,0,0,0,0,0,0,0,0,0,0,0,0,0,0,0,0,0,0,0,0,0,0,0,0,0,0,0,0,0,0,0,0,0,0,0,0,0,0,0,0,0,0,0,0,0,0,0,0,0,0,0,0,0,0,0,0,0,0,0,0,0,0,0,0,0,0],"sum_hessian":[1.8978684E3,7.046361E2,1.1932323E3,1.6315903E2,5.414771E2,7.182444E2,4.749879E2,1.4867317E2,1.4485866E1,2.0788309E2,3.3359402E2,1.2599973E2,5.922446E2,4.4605246E2,2.8935446E1,7.855829E1,7.0114876E1,1.5382322E0,1.2947633E1,1.9976031E2,8.122778E0,2.5567278E1,3.0802673E2,1.996875E1,1.0603098E2,5.795772E2,1.2667416E1,3.0691824E2,1.3913422E2,2.0649454E1,8.285992E0,1.4383836E1,6.417445E1,2.80981E0,6.730506E1,3.7293205E0,9.218312E0,1.1592167E2,8.383864E1,3.3955047E0,4.7272735E0,1.1040129E1,1.4527149E1,4.5241577E1,2.6278516E2,5.223149E0,1.4745601E1,6.445959E0,9.958502E1,2.0582364E2,3.7375357E2,1.0871199E1,1.7962171E0,1.0939621E2,1.9752203E2,1.3684258E2,2.2916462E0,3.7279563E0,1.6921497E1,7.088074E0,1.1979176E0,5.6236134E0,8.760222E0,5.0063072E1,1.4111383E1,1.1377983E0,1.6720117E0,1.6464567E0,6.565861E1,2.1921277E0,1.5371928E0,4.150183E0,5.0681295E0,2.2389536E1,9.3532135E1,2.208247E0,8.1630394E1,1.5533364E0,1.8421685E0,1.4852902E0,3.2419834E0,8.867542E0,2.1725862E0,1.2928756E0,1.3234274E1,1.2586371E0,4.398294E1,2.6040396E1,2.3674477E2,2.2745278E0,2.9486208E0,6.813007E0,7.932594E0,2.4792552E0,3.9667037E0,2.1048407E1,7.853662E1,3.8754468E0,2.0194818E2,3.1599197E2,5.7761604E1,5.392411E0,5.4787874E0,1.06970055E2,2.4261537E0,1.8880937E2,8.712671E0,5.805711E0,1.3103687E2,2.5282497E0,1.1997064E0,4.459596E0,1.2461902E1,5.305167E0,1.7829065E0],"tree_param":{"num_deleted":"0","num_feature":"5","num_nodes":"115","size_leaf_vector":"1"}},{"base_weights":[1.0734814E-6,4.0994417E-2,-2.1393523E-1,-2.1836282E-1,5.652677E-2,-1.4654963E-1,-4.8032057E-1,-3.2494974E-1,-4.2967655E-2,1.3370621E-2,1.5954018E-1,-1.7799446E-1,3.1093317E-1,-5.291274E-1,1.1781815E-1,-3.5948995E-1,1.9677544E-1,2.2819111E-1,-1.0618624E-1,1.24950916E-1,-1.5193108E-2,1.3299689E-1,4.130727E-1,-1.9244018E-1,2.3720291E-1,-7.316045E-2,6.862345E-1,-3.612619E-1,-1.7449296E-1,-1.0309956E-1,1.09028526E-1,-1.4090124E-1,-2.4291731E-1,2.2813803E-1,-1.1386475E-1,-2.109877E-1,1.4267138E-1,3.56172E-1,9.031782E-2,-2.1574849E-1,-7.256718E-4,-1.4873578E-1,1.5497862E-1,2.3532328E-1,7.1678823E-1,-1.392368E-1,-4.1586316E-1,-1.4240089E-2,3.452733E-1,1.7700198E-1,-3.60255E-1,3.4439847E-1,3.7011138E-1,-1.7102048E-1,-3.5966273E-2,1.9276494E-2,-1.05860986E-1,-1.4700611E-1,-3.957182E-2,1.7253323E-1,-1.16979234E-1,-6.991895E-2,1.2340466E-1,4.2629684E-3,5.2541833E-2,5.0014295E-3,-7.274533E-2,-1.3134983E-1,1.7376273E-3,3.174346E-2,-8.120593E-2,9.047953E-2,3.1915627E-2,1.1397947E-1,-6.354332E-2,2.3294295E-1,3.3129305E-2,-9.30072E-2,-2.5493667E-2,-1.4354739E-1,-3.6644462E-2,5.076683E-2,1.5399808E-1,-4.7873907E-2,-1.3032162E-1,2.2495791E-1,-8.264688E-2,9.674389E-2,-1.0351742E-1],"categories":[],"categories_nodes":[],"categories_segments":[],"categories_sizes":[],"default_left":[0,0,0,0,0,0,0,0,0,0,0,0,0,0,0,0,0,0,0,0,0,0,0,0,0,0,0,0,0,0,0,0,0,0,0,0,0,0,0,0,0,0,0,0,0,0,0,0,0,0,0,0,0,0,0,0,0,0,0,0,0,0,0,0,0,0,0,0,0,0,0,0,0,0,0,0,0,0,0,0,0,0,0,0,0,0,0,0,0],"id":1,"left_children":[1,3,5,7,9,11,13,15,17,19,21,23,25,27,29,31,33,-1,35,37,39,41,43,45,47,49,51,53,-1,-1,-1,-1,55,-1,-1,57,59,61,63,65,67,69,71,73,75,77,79,-1,81,-1,83,85,-1,-1,87,-1,-1,-1,-1,-1,-1,-1,-1,-1,-1,-1,-1,-1,-1,-1,-1,-1,-1,-1,-1,-1,-1,-1,-1,-1,-1,-1,-1,-1,-1,-1,-1,-1,-1],"loss_changes":[1.3875512E1,5.3610783E0,4.4965124E0,1.3924239E0,5.5705876E0,2.997036E0,1.5490198E0,9.1122293E-1,1.5839299E0,2.8209708E0,2.435051E0,1.1970797E0,1.9984937E0,2.0654869E-1,6.530627E-1,4.5230818E-1,1.4394035E0,0E0,7.6838684E-1,1.4123526E0,2.04578E0,2.1064591E0,1.6987433E0,2.1539116E0,2.2874343E-1,1.6563362E0,8.724766E-1,9.238012E-1,0E0,0E0,0E0,0E0,8.163321E-1,0E0,0E0,3.838094E-1,2.2936988E0,8.488345E-1,1.0189645E0,2.9883122E-1,1.8791045E0,8.0031234E-1,2.1947918E0,1.5876501E0,3.587613E-1,1.3802106E0,5.905924E-1,0E0,6.473404E-2,0E0,1.8664956E-2,1.6278974E0,0E0,0E0,8.316997E-1,0E0,0E0,0E0,0E0,0E0,0E0,0E0,0E0,0E0,0E0,0E0,0E0,0E0,0E0,0E0,0E0,0E0,0E0,0E0,0E0,0E0,0E0,0E0,0E0,0E0,0E0,0E0,0E0,0E0,0E0,0E0,0E0,0E0,0E0],"parents":[2147483647,0,0,1,1,2,2,3,3,4,4,5,5,6,6,7,7,8,8,9,9,10,10,11,11,12,12,13,13,14,14,15,15,16,16,18,18,19,19,20,20,21,21,22,22,23,23,24,24,25,25,26,26,27,27,32,32,35,35,36,36,37,37,38,38,39,39,40,40,41,41,42,42,43,43,44,44,45,45,46,46,48,48,50,50,51,51,54,54],"right_children":[2,4,6,8,10,12,14,16,18,20,22,24,26,28,30,32,34,-1,36,38,40,42,44,46,48,50,52,54,-1,-1,-1,-1,56,-1,-1,58,60,62,64,66,68,70,72,74,76,78,80,-1,82,-1,84,86,-1,-1,88,-1,-1,-1,-1,-1,-1,-1,-1,-1,-1,-1,-1,-1,-1,-1,-1,-1,-1,-1,-1,-1,-1,-1,-1,-1,-1,-1,-1,-1,-1,-1,-1,-1,-1],"split_conditions":[5.8125805E1,-1.0363688E2,1.4800856E2,1.460689E3,1.5172549E3,2E0,1.5172549E3,-1.0763551E2,1.4670687E3,1.4724238E3,2E0,1.431309E2,9.707882E1,1.5835505E3,1.6473195E2,1.3993075E3,1.3923768E3,2.2819111E-1,1.5194437E3,-1.9057125E1,-3.4435867E1,1.4739102E3,-2.9221601E0,1.120108E2,1.4429154E3,1.4876254E3,1.6468611E3,1.548457E3,-1.7449296E-1,-1.0309956E-1,1.09028526E-1,-1.4090124E-1,1.4165135E3,2.2813803E-1,-1.1386475E-1,1.4739102E3,1.5425352E3,-8.638465E1,1.478364E3,1.4799802E3,1.4738485E3,1.452471E3,1.5040039E3,1.5615236E3,1.6168943E3,1.5336193E3,1.5089874E3,-1.4240089E-2,1.6996538E3,1.7700198E-1,2E0,1.4967909E3,3.7011138E-1,-1.7102048E-1,1.5615236E3,1.9276494E-2,-1.05860986E-1,-1.4700611E-1,-3.957182E-2,1.7253323E-1,-1.16979234E-1,-6.991895E-2,1.2340466E-1,4.2629684E-3,5.2541833E-2,5.0014295E-3,-7.274533E-2,-1.3134983E-1,1.7376273E-3,3.174346E-2,-8.120593E-2,9.047953E-2,3.1915627E-2,1.1397947E-1,-6.354332E-2,2.3294295E-1,3.3129305E-2,-9.30072E-2,-2.5493667E-2,-1.4354739E-1,-3.6644462E-2,5.076683E-2,1.5399808E-1,-4.7873907E-2,-1.3032162E-1,2.2495791E-1,-8.264688E-2,9.674389E-2,-1.0351742E-1],"split_indices":[2,2,2,0,1,4,1,2,0,1,4,2,2,0,2,0,0,0,0,2,2,0,2,2,1,1,0,0,0,0,0,0,0,0,0,0,0,2,0,1,1,0,0,0,1,0,1,0,0,0,3,1,0,0,0,0,0,0,0,0,0,0,0,0,0,0,0,0,0,0,0,0,0,0,0,0,0,0,0,0,0,0,0,0,0,0,0,0,0],"split_type":[0,0,0,0,0,0,0,0,0,0,0,0,0,0,0,0,0,0,0,0,0,0,0,0,0,0,0,0,0,0,0,0,0,0,0,0,0,0,0,0,0,0,0,0,0,0,0,0,0,0,0,0,0,0,0,0,0,0,0,0,0,0,0,0,0,0,0,0,0,0,0,0,0,0,0,0,0,0,0,0,0,0,0,0,0,0,0,0,0],"sum_hessian":[1.5801631E3,1.3267472E3,2.534159E2,7.422862E1,1.2525186E3,2.034905E2,4.9925396E1,4.564044E1,2.858818E1,8.835122E2,3.6900632E2,1.9097487E2,1.2515624E1,4.62656E1,3.6597977E0,4.3098137E1,2.5423038E0,1.2804062E0,2.7307774E1,1.79387E2,7.041252E2,3.3541504E2,3.35913E1,1.8507227E2,5.9026065E0,6.5832286E0,5.932395E0,1.2902412E1,3.3363186E1,1.1325643E0,2.5272334E0,2.0599314E1,2.2498823E1,1.1237249E0,1.418579E0,1.9322613E1,7.985161E0,2.215947E1,1.5722752E2,4.6439743E1,6.576855E2,2.3858757E1,3.1155627E2,2.2309492E1,1.128181E1,1.5078842E2,3.4283833E1,1.7785298E0,4.124077E0,1.6701685E0,4.91306E0,4.6549525E0,1.2774426E0,7.399946E0,5.5024657E0,6.0401626E0,1.6458662E1,3.1194656E0,1.6203146E1,4.3629265E0,3.6222343E0,1.6213292E0,2.053814E1,8.3485756E1,7.3741776E1,4.8298116E0,4.1609932E1,8.690502E0,6.4899493E2,7.770905E0,1.6087852E1,7.6257774E1,2.352985E2,1.6971132E1,5.338359E0,1.0015363E1,1.2664471E0,3.5218266E1,1.1557016E2,2.7739836E1,6.543998E0,2.9942749E0,1.1298019E0,2.1760535E0,2.7370067E0,2.6874528E0,1.9674997E0,2.5277662E0,2.9746997E0],"tree_param":{"num_deleted":"0","num_feature":"5","num_nodes":"89","size_leaf_vector":"1"}},{"base_weights":[-2.1495823E-6,-4.0749922E-1,2.978039E-1,-6.492357E-1,-2.8560066E-1,2.0026052E-1,5.5045295E-1,-6.728781E-1,-5.2149636E-1,-3.5190162E-1,-1.24092884E-1,2.2986285E-1,-1.07421465E-1,6.04755E-1,-3.4062332E-1,-5.606674E-1,-7.18951E-1,-6.052135E-1,-3.579579E-1,-1.1690354E-1,-3.7729353E-1,-1.0722424E-1,-4.4479805E-1,1.117546E-1,2.7973464E-1,-1.8631649E-1,3.753754E-1,5.3498477E-1,8.60181E-1,-1.12550125E-1,-6.435755E-1,-5.761468E-1,-4.8995847E-3,-7.362911E-1,-5.3163224E-1,-1.9850092E-1,-1.6524258E-1,2.203271E-1,-4.7373766E-1,-4.084831E-1,3.1873073E-2,-4.4275343E-1,-3.0174363E-1,-2.698279E-1,-8.72855E-2,-2.0948672E-1,-1.4190428E-1,-4.367008E-1,1.2800735E-1,1.7345572E-1,3.1877375E-1,-1.2254126E-1,-5.5973107E-1,5.371677E-1,-1.7087038E-3,5.7130855E-1,-3.9627973E-2,8.9831626E-1,7.958245E-2,3.1294325E-1,-1.9407745E-1,-4.7697287E-2,-2.1501349E-1,-1.7806503E-1,-5.076299E-2,6.67781E-2,-6.876148E-2,-2.4785887E-1,-2.0398043E-1,4.580025E-2,-2.0191729E-1,-1.8171969E-1,7.2378986E-2,-4.494384E-2,1.1873201E-1,-8.958538E-2,-2.136963E-1,-8.697418E-2,-1.8125777E-1,1.7875728E-1,-1.566658E-2,-1.510824E-1,-9.898163E-2,-2.5195336E-2,-9.9940784E-2,2.3443263E-2,-1.0258199E-1,1.7138618E-1,-2.9139448E-2,4.808484E-2,-1.3355912E-1,-3.6310717E-2,-2.106788E-1,1.16118655E-1,3.0455818E-2,8.850689E-2,2.1483097E-2,9.9484555E-2,6.6657187E-3,-1.13907985E-1,-8.147441E-3,-2.0539342E-1,-6.839704E-2,3.64064E-2,1.8811177E-1,7.9732195E-2,-6.84725E-2,1.7606497E-1,-1.0049022E-1,-1.1562859E-1,7.706176E-2,5.6218203E-2,2.727935E-1,-4.779407E-2,8.8214934E-2,-8.90182E-2,2.2946864E-1],"categories":[],"categories_nodes":[],"categories_segments":[],"categories_sizes":[],"default_left":[0,0,0,0,0,0,0,0,0,0,0,0,0,0,0,0,0,0,0,0,0,0,0,0,0,0,0,0,0,0,0,0,0,0,0,0,0,0,0,0,0,0,0,0,0,0,0,0,0,0,0,0,0,0,0,0,0,0,0,0,0,0,0,0,0,0,0,0,0,0,0,0,0,0,0,0,0,0,0,0,0,0,0,0,0,0,0,0,0,0,0,0,0,0,0,0,0,0,0,0,0,0,0,0,0,0,0,0,0,0,0,0,0,0,0,0,0],"id":2,"left_children":[1,3,5,7,9,11,13,15,17,19,21,23,25,27,29,31,33,35,37,39,41,43,45,47,49,51,53,55,57,59,61,63,65,67,69,-1,71,73,75,77,79,81,83,85,87,-1,89,91,93,95,97,99,101,103,105,107,109,111,113,115,-1,-1,-1,-1,-1,-1,-1,-1,-1,-1,-1,-1,-1,-1,-1,-1,-1,-1,-1,-1,-1,-1,-1,-1,-1,-1,-1,-1,-1,-1,-1,-1,-1,-1,-1,-1,-1,-1,-1,-1,-1,-1,-1,-1,-1,-1,-1,-1,-1,-1,-1,-1,-1,-1,-1,-1,-1],"loss_changes":[2.7220636E2,2.7723251E1,3.1827522E1,6.055603E-1,6.71743E0,8.554852E0,1.7645035E1,9.607086E-1,5.2139854E-1,2.6237297E0,9.547863E-1,5.00296E0,3.2268257E0,5.6001434E0,1.4021416E0,6.968365E-1,2.0449829E-1,7.403364E-1,1.4903076E0,1.9671793E0,1.8596611E0,5.5148125E-1,5.874951E-1,2.332589E0,2.4351997E0,1.6438277E0,7.3137426E-1,5.65287E0,2.0514374E0,3.2463365E0,2.0338559E-1,4.5986557E-1,2.1494006E-1,2.759018E-1,1.9553189E0,0E0,1.0813922E0,3.2785493E-1,5.2113414E-1,1.7968488E-1,1.4897938E0,1.3016663E0,1.2725143E0,5.0085056E-1,1.0895345E0,0E0,5.597777E-1,5.502156E-1,1.6681433E0,2.0025687E0,1.659893E0,1.5275224E0,2.6696038E-1,2.3711324E-1,3.3888036E-1,3.7786179E0,1.8392814E0,3.603363E-1,2.7325207E-1,2.4662535E0,0E0,0E0,0E0,0E0,0E0,0E0,0E0,0E0,0E0,0E0,0E0,0E0,0E0,0E0,0E0,0E0,0E0,0E0,0E0,0E0,0E0,0E0,0E0,0E0,0E0,0E0,0E0,0E0,0E0,0E0,0E0,0E0,0E0,0E0,0E0,0E0,0E0,0E0,0E0,0E0,0E0,0E0,0E0,0E0,0E0,0E0,0E0,0E0,0E0,0E0,0E0,0E0,0E0,0E0,0E0,0E0,0E0],"parents":[2147483647,0,0,1,1,2,2,3,3,4,4,5,5,6,6,7,7,8,8,9,9,10,10,11,11,12,12,13,13,14,14,15,15,16,16,17,17,18,18,19,19,20,20,21,21,22,22,23,23,24,24,25,25,26,26,27,27,28,28,29,29,30,30,31,31,32,32,33,33,34,34,36,36,37,37,38,38,39,39,40,40,41,41,42,42,43,43,44,44,46,46,47,47,48,48,49,49,50,50,51,51,52,52,53,53,54,54,55,55,56,56,57,57,58,58,59,59],"right_children":[2,4,6,8,10,12,14,16,18,20,22,24,26,28,30,32,34,36,38,40,42,44,46,48,50,52,54,56,58,60,62,64,66,68,70,-1,72,74,76,78,80,82,84,86,88,-1,90,92,94,96,98,100,102,104,106,108,110,112,114,116,-1,-1,-1,-1,-1,-1,-1,-1,-1,-1,-1,-1,-1,-1,-1,-1,-1,-1,-1,-1,-1,-1,-1,-1,-1,-1,-1,-1,-1,-1,-1,-1,-1,-1,-1,-1,-1,-1,-1,-1,-1,-1,-1,-1,-1,-1,-1,-1,-1,-1,-1,-1,-1,-1,-1,-1,-1],"split_conditions":[-1.4903811E0,-4.695471E1,5.8125805E1,1.5277645E3,-8.675557E0,1.5385486E3,1.560866E3,1.529517E3,-6.6911964E1,1.452471E3,1.548457E3,7.2165055E0,4.65219E1,1.4800856E2,1.5856041E3,2E0,2E0,2E0,1.5336193E3,1.4561094E3,-2.047269E1,1.4724238E3,1.5682966E3,1.4484951E3,1.4964396E3,2E0,5.26774E1,2E0,1.5275703E3,1E0,6.7253624E1,-4.8471844E1,1.5059745E3,1.4633317E3,1.4697747E3,-1.9850092E-1,1.647371E3,1E0,1.580052E3,-1.6763432E1,1.4592266E3,1.5344504E3,-1.8495487E1,-7.1075406E0,1.4738485E3,-2.0948672E-1,1.5916669E3,1.4429546E3,1.479169E3,1.4561094E3,2E0,1.5490093E3,2E0,1.5990681E3,1.556462E3,1.664037E3,2E0,1.4582783E3,1.5327223E3,1.5726223E3,-1.9407745E-1,-4.7697287E-2,-2.1501349E-1,-1.7806503E-1,-5.076299E-2,6.67781E-2,-6.876148E-2,-2.4785887E-1,-2.0398043E-1,4.580025E-2,-2.0191729E-1,-1.8171969E-1,7.2378986E-2,-4.494384E-2,1.1873201E-1,-8.958538E-2,-2.136963E-1,-8.697418E-2,-1.8125777E-1,1.7875728E-1,-1.566658E-2,-1.510824E-1,-9.898163E-2,-2.5195336E-2,-9.9940784E-2,2.3443263E-2,-1.0258199E-1,1.7138618E-1,-2.9139448E-2,4.808484E-2,-1.3355912E-1,-3.6310717E-2,-2.106788E-1,1.16118655E-1,3.0455818E-2,8.850689E-2,2.1483097E-2,9.9484555E-2,6.6657187E-3,-1.13907985E-1,-8.147441E-3,-2.0539342E-1,-6.839704E-2,3.64064E-2,1.8811177E-1,7.9732195E-2,-6.84725E-2,1.7606497E-1,-1.0049022E-1,-1.1562859E-1,7.706176E-2,5.6218203E-2,2.727935E-1,-4.779407E-2,8.8214934E-2,-8.90182E-2,2.2946864E-1],"split_indices":[2,2,2,0,2,1,1,1,2,0,0,2,2,2,1,4,4,4,0,1,2,1,1,1,0,4,2,4,1,3,2,2,1,0,0,0,1,4,0,2,1,1,2,2,1,0,0,0,0,1,4,1,3,0,1,0,3,0,1,1,0,0,0,0,0,0,0,0,0,0,0,0,0,0,0,0,0,0,0,0,0,0,0,0,0,0,0,0,0,0,0,0,0,0,0,0,0,0,0,0,0,0,0,0,0,0,0,0,0,0,0,0,0,0,0,0,0],"split_type":[0,0,0,0,0,0,0,0,0,0,0,0,0,0,0,0,0,0,0,0,0,0,0,0,0,0,0,0,0,0,0,0,0,0,0,0,0,0,0,0,0,0,0,0,0,0,0,0,0,0,0,0,0,0,0,0,0,0,0,0,0,0,0,0,0,0,0,0,0,0,0,0,0,0,0,0,0,0,0,0,0,0,0,0,0,0,0,0,0,0,0,0,0,0,0,0,0,0,0,0,0,0,0,0,0,0,0,0,0,0,0,0,0,0,0,0,0],"sum_hessian":[2.241057E3,9.4610474E2,1.2949523E3,3.157051E2,6.303996E2,9.3554663E2,3.594056E2,2.6279816E2,5.2906956E1,4.4609375E2,1.843059E2,8.5366754E2,8.18791E1,3.390644E2,2.034121E1,8.0328026E1,1.8247014E2,3.3207123E1,1.9699831E1,4.404726E1,4.0204648E2,1.7636374E2,7.942147E0,2.5440851E2,5.9925903E2,7.090623E1,1.0972871E1,2.687494E2,7.0315E1,1.23871975E1,7.9540114E0,7.811566E1,2.2123666E0,1.6432759E2,1.8142546E1,2.8984055E1,4.223069E0,3.1355784E0,1.6564253E1,1.4291831E1,2.9755428E1,2.1280342E2,1.8924306E2,1.7894926E1,1.5846881E2,3.6130245E0,4.329122E0,6.5775394E0,2.4783096E2,1.6245085E2,4.3680817E2,6.1697174E1,9.209054E0,7.381306E0,3.5915651E0,2.5277608E2,1.5973318E1,6.6896065E1,3.4189377E0,7.12685E0,5.2603474E0,1.4592471E0,6.4947643E0,7.447216E1,3.6435025E0,1.1021667E0,1.1101999E0,5.805404E1,1.0627356E2,3.093735E0,1.504881E1,1.7915984E0,2.4314704E0,1.0553035E0,2.0802748E0,1.0851155E1,5.713098E0,1.0445095E1,3.8467355E0,3.0714138E0,2.6684015E1,1.3598586E2,7.681756E1,2.4307093E1,1.6493597E2,3.0575004E0,1.4837425E1,1.4943354E0,1.5697447E2,2.404707E0,1.9244152E0,3.6704102E0,2.9071293E0,2.172692E1,2.2610405E2,7.3190544E1,8.926031E1,4.185652E2,1.824296E1,1.5886527E1,4.5810646E1,5.9172006E0,3.2918534E0,1.7295268E0,5.651779E0,1.5674944E0,2.0240707E0,2.488519E2,3.924179E0,7.235186E0,8.7381315E0,1.2936857E0,6.560238E1,1.7390116E0,1.6799259E0,3.1802447E0,3.9466052E0],"tree_param":{"num_deleted":"0","num_feature":"5","num_nodes":"117","size_leaf_vector":"1"}},{"base_weights":[-2.2412948E-3,3.481959E-1,-2.3945157E-1,5.565266E-1,2.3041844E-1,-1.5604696E-1,-3.726107E-1,6.808257E-1,4.5835152E-1,7.406906E-2,2.4625356E-1,-5.7586193E-2,-2.1113297E-1,-4.1296992E-1,1.7102274E-1,7.2570926E-1,3.385752E-1,4.836813E-1,1.4882107E-1,2.8040212E-1,-1.1472888E-1,4.1001642E-1,2.135705E-1,-2.0390383E-3,-1.1473245E-1,-2.2543961E-1,2.7393392E-1,-4.670401E-1,-2.9494962E-1,2.3669411E-1,-1.452223E-1,7.5075257E-1,4.150094E-1,-4.184617E-2,7.8912514E-1,4.9037832E-1,-4.151218E-2,-6.8946235E-2,6.2878937E-1,1.7315213E-1,1.6922373E-1,3.2422025E-2,-4.6818084E-1,3.3642083E-1,5.842773E-1,3.271301E-2,2.2474307E-1,-1.7058446E-1,3.050879E-2,2.1111268E-1,-1.307258E-1,-1.4994939E-1,-2.579762E-1,3.8157815E-1,-1.1940206E-1,-3.2317728E-1,-5.481101E-1,-3.291683E-1,-1.581817E-1,1.44076E-1,2.8369617E-1,1.2962286E-1,2.3208639E-1,-1.1242693E-1,1.6994494E-1,4.9916144E-2,-1.3684657E-1,3.0498824E-1,8.396114E-2,1.4212807E-1,3.014217E-1,6.280763E-2,-8.010037E-2,2.1375515E-2,2.52338E-1,-6.7892306E-2,9.720291E-2,3.28105E-2,-6.408333E-2,-1.5989953E-1,-2.7328743E-2,1.2315429E-1,-4.688491E-2,1.9280277E-1,5.1884588E-2,1.19995214E-1,-3.6186088E-2,2.1633881E-1,6.4256616E-2,-1.1297586E-1,-2.3869932E-2,7.2951786E-2,8.64361E-4,-5.210881E-2,1.7712245E-2,-6.466492E-2,-9.416036E-3,-9.033215E-2,-3.958394E-2,2.1142451E-1,8.030529E-2,-1.0090122E-1,4.6751928E-2,-1.701118E-1,-4.558018E-2,-1.0607252E-1,-1.2142983E-2,-8.2312375E-3,-1.4122467E-1,7.139616E-2,-1.065499E-1],"categories":[],"categories_nodes":[],"categories_segments":[],"categories_sizes":[],"default_left":[0,0,0,0,0,0,0,0,0,0,0,0,0,0,0,0,0,0,0,0,0,0,0,0,0,0,0,0,0,0,0,0,0,0,0,0,0,0,0,0,0,0,0,0,0,0,0,0,0,0,0,0,0,0,0,0,0,0,0,0,0,0,0,0,0,0,0,0,0,0,0,0,0,0,0,0,0,0,0,0,0,0,0,0,0,0,0,0,0,0,0,0,0,0,0,0,0,0,0,0,0,0,0,0,0,0,0,0,0,0,0],"id":3,"left_children":[1,3,5,7,9,11,13,15,17,19,21,23,25,27,29,31,33,35,37,39,41,43,45,47,49,51,53,55,57,59,-1,61,63,65,67,69,-1,71,73,75,-1,77,79,81,83,85,87,89,91,-1,93,95,97,99,-1,101,103,105,107,109,-1,-1,-1,-1,-1,-1,-1,-1,-1,-1,-1,-1,-1,-1,-1,-1,-1,-1,-1,-1,-1,-1,-1,-1,-1,-1,-1,-1,-1,-1,-1,-1,-1,-1,-1,-1,-1,-1,-1,-1,-1,-1,-1,-1,-1,-1,-1,-1,-1,-1,-1],"loss_changes":[1.5656172E2,1.8525917E1,1.241552E1,3.029976E0,1.1884384E0,3.7427864E0,9.545261E0,1.5791435E0,1.1516914E0,1.8339791E0,2.2788582E0,7.925355E-1,3.1399326E0,2.4293518E0,1.4288976E0,4.9879074E-1,2.7149572E0,6.6701126E-1,1.4282916E0,5.835507E-1,1.3083028E0,7.3287296E-1,7.4162483E-1,7.055344E-1,1.7030971E0,1.0209255E0,1.103678E0,3.0205078E0,5.521622E-1,1.7311063E0,0E0,3.5910416E-1,1.4091173E0,8.897611E-1,5.5123854E-1,7.421417E-1,0E0,6.0797703E-1,4.4135094E-1,1.1393993E0,0E0,3.7339404E-1,1.3165665E-1,2.0102992E0,3.7315035E-1,1.3286226E0,1.673584E0,3.6030513E-1,6.3294923E-1,0E0,1.0015495E0,1.022404E0,1.5914459E0,2.4761236E-1,0E0,6.907053E-1,1.218113E0,7.0681953E-1,1.1216557E0,1.3191067E0,0E0,0E0,0E0,0E0,0E0,0E0,0E0,0E0,0E0,0E0,0E0,0E0,0E0,0E0,0E0,0E0,0E0,0E0,0E0,0E0,0E0,0E0,0E0,0E0,0E0,0E0,0E0,0E0,0E0,0E0,0E0,0E0,0E0,0E0,0E0,0E0,0E0,0E0,0E0,0E0,0E0,0E0,0E0,0E0,0E0,0E0,0E0,0E0,0E0,0E0,0E0],"parents":[2147483647,0,0,1,1,2,2,3,3,4,4,5,5,6,6,7,7,8,8,9,9,10,10,11,11,12,12,13,13,14,14,15,15,16,16,17,17,18,18,19,19,20,20,21,21,22,22,23,23,24,24,25,25,26,26,27,27,28,28,29,29,31,31,32,32,33,33,34,34,35,35,37,37,38,38,39,39,41,41,42,42,43,43,44,44,45,45,46,46,47,47,48,48,50,50,51,51,52,52,53,53,55,55,56,56,57,57,58,58,59,59],"right_children":[2,4,6,8,10,12,14,16,18,20,22,24,26,28,30,32,34,36,38,40,42,44,46,48,50,52,54,56,58,60,-1,62,64,66,68,70,-1,72,74,76,-1,78,80,82,84,86,88,90,92,-1,94,96,98,100,-1,102,104,106,108,110,-1,-1,-1,-1,-1,-1,-1,-1,-1,-1,-1,-1,-1,-1,-1,-1,-1,-1,-1,-1,-1,-1,-1,-1,-1,-1,-1,-1,-1,-1,-1,-1,-1,-1,-1,-1,-1,-1,-1,-1,-1,-1,-1,-1,-1,-1,-1,-1,-1,-1,-1],"split_conditions":[-5.522257E0,-5.144141E1,3.508325E1,-9.776068E1,1.452471E3,4.039108E0,1.560866E3,1.5194437E3,2E0,-2.9608988E1,1.4721896E3,-4.412952E-1,1.5990681E3,1.4952751E3,1.2447059E2,2E0,1.5454286E3,1.6468611E3,-6.167423E1,1.4882072E3,1.4642682E3,1.4681333E3,-4.5498234E1,1.4829153E3,1.445041E3,1.4958281E3,1.640382E3,1.5249088E3,1.0654261E2,1.00064384E2,-1.452223E-1,1.485356E3,1.4042797E3,1E0,-1.0763551E2,1.6027991E3,-4.151218E-2,-7.7163765E1,1.5213337E3,-4.1477314E1,1.6922373E-1,1.4429546E3,-2.1605862E1,1.4659735E3,-1.1050322E1,1.5385486E3,-4.394907E1,-4.1307664E0,1.487927E3,2.1111268E-1,3.078558E0,1.4719115E3,1.5108636E3,1.2195715E1,-1.1940206E-1,1.524158E3,2E0,2E0,2E0,8.318088E1,2.8369617E-1,1.2962286E-1,2.3208639E-1,-1.1242693E-1,1.6994494E-1,4.9916144E-2,-1.3684657E-1,3.0498824E-1,8.396114E-2,1.4212807E-1,3.014217E-1,6.280763E-2,-8.010037E-2,2.1375515E-2,2.52338E-1,-6.7892306E-2,9.720291E-2,3.28105E-2,-6.408333E-2,-1.5989953E-1,-2.7328743E-2,1.2315429E-1,-4.688491E-2,1.9280277E-1,5.1884588E-2,1.19995214E-1,-3.6186088E-2,2.1633881E-1,6.4256616E-2,-1.1297586E-1,-2.3869932E-2,7.2951786E-2,8.64361E-4,-5.210881E-2,1.7712245E-2,-6.466492E-2,-9.416036E-3,-9.033215E-2,-3.958394E-2,2.1142451E-1,8.030529E-2,-1.0090122E-1,4.6751928E-2,-1.701118E-1,-4.558018E-2,-1.0607252E-1,-1.2142983E-2,-8.2312375E-3,-1.4122467E-1,7.139616E-2,-1.065499E-1],"split_indices":[2,2,2,2,0,2,1,0,4,2,0,2,0,1,2,4,0,0,2,1,1,0,2,1,0,0,1,0,2,2,0,1,0,4,2,0,0,2,0,2,0,0,2,0,2,1,2,2,0,0,2,1,1,2,0,0,4,4,3,2,0,0,0,0,0,0,0,0,0,0,0,0,0,0,0,0,0,0,0,0,0,0,0,0,0,0,0,0,0,0,0,0,0,0,0,0,0,0,0,0,0,0,0,0,0,0,0,0,0,0,0],"split_type":[0,0,0,0,0,0,0,0,0,0,0,0,0,0,0,0,0,0,0,0,0,0,0,0,0,0,0,0,0,0,0,0,0,0,0,0,0,0,0,0,0,0,0,0,0,0,0,0,0,0,0,0,0,0,0,0,0,0,0,0,0,0,0,0,0,0,0,0,0,0,0,0,0,0,0,0,0,0,0,0,0,0,0,0,0,0,0,0,0,0,0,0,0,0,0,0,0,0,0,0,0,0,0,0,0,0,0,0,0,0,0],"sum_hessian":[1.881394E3,7.592562E2,1.1221378E3,2.7286816E2,4.863881E2,6.913073E2,4.3083054E2,1.1779431E2,1.5507385E2,4.5253296E1,4.411348E2,2.4874525E2,4.4256204E2,4.0127994E2,2.9550577E1,1.0314697E2,1.4647341E1,1.4282356E2,1.225029E1,2.1390692E1,2.3862606E1,7.1471565E1,3.696632E2,1.26662636E2,1.2208261E2,4.304029E2,1.2159135E1,2.7317117E2,1.2810876E2,2.7438631E1,2.1119459E0,9.414249E1,9.004485E0,8.4335785E0,6.2137623E0,1.4151173E2,1.3118316E0,9.015984E0,3.2343063E0,1.6690779E1,4.699912E0,1.7489542E1,6.373064E0,5.2310036E1,1.9161533E1,2.1736025E1,3.479272E2,1.9814476E1,1.0684817E2,1.5157499E0,1.20566864E2,1.3132227E2,2.9908066E2,1.0852673E1,1.3064615E0,1.00253235E2,1.7291795E2,1.0134579E2,2.6762981E1,2.5332438E1,2.1061935E0,7.635472E0,8.650702E1,1.2118702E0,7.7926145E0,6.010884E0,2.4226947E0,3.606365E0,2.6073973E0,1.3894376E2,2.5679727E0,3.7248242E0,5.2911596E0,1.2604033E0,1.9739032E0,4.4383116E0,1.2252468E1,1.3745987E1,3.7435539E0,5.085449E0,1.2876148E0,4.5616917E1,6.6931176E0,1.6286772E1,2.8747618E0,5.9281216E0,1.5807902E1,5.8420515E0,3.4208514E2,5.1104555E0,1.470402E1,1.1387889E1,9.546027E1,9.837564E1,2.219122E1,8.4017555E1,4.7304707E1,2.2178894E2,7.72917E1,1.4762094E0,9.376464E0,9.786251E1,2.3907268E0,1.6462111E2,8.296845E0,9.323841E1,8.107374E0,1.9636837E1,7.126144E0,2.1762123E1,3.570314E0],"tree_param":{"num_deleted":"0","num_feature":"5","num_nodes":"111","size_leaf_vector":"1"}},{"base_weights":[3.0288887E-3,2.0980548E-2,-3.149686E-1,-1.8831427E-1,3.155247E-2,-3.6003542E-1,3.5599825E-1,-2.9087445E-1,-4.5839332E-2,9.9313045E-5,1.08586244E-1,-3.9714408E-1,1.1386884E-1,1.1073728E-1,1.7477371E-1,-3.2675588E-1,1.8121365E-1,4.0528622E-1,-1.0590527E-1,2.5928134E-1,-5.1132035E-3,8.8097356E-2,2.9133594E-1,-4.1516984E-1,-2.1603948E-1,2.4112208E-1,-3.4405693E-1,7.3307335E-2,-1.5999792E-2,-4.3037596E-1,-2.1038532E-1,1.9629346E-1,-1.0740169E-1,-2.607013E-2,2.6506922E-1,-1.4584184E-1,-3.665897E-2,-1.7621097E-1,3.4519723E-1,-1.8023582E-1,3.96054E-3,1.0483098E-1,-2.8319445E-1,1.7009225E-1,4.4347024E-1,-3.0134892E-1,-4.6333352E-1,7.757937E-2,-1.521558E-1,-1.3333002E-1,1.8752356E-3,-9.8851085E-2,-1.6256358E-1,2.0267304E-2,-9.960032E-2,1.4756766E-1,-3.1218268E-2,4.1472204E-2,-1.1831601E-1,2.3950121E-1,6.655691E-2,1.14877865E-1,-6.042624E-2,7.0820414E-3,-2.2524381E-2,-1.9206909E-3,4.1506782E-2,3.6706053E-2,-1.2185124E-1,-3.3450784E-4,1.2409657E-1,1.6008899E-1,4.4349473E-2,-1.18084E-1,1.8093105E-2,-1.10410266E-1,-1.6128996E-1,-4.358538E-2,9.1918305E-2],"categories":[],"categories_nodes":[],"categories_segments":[],"categories_sizes":[],"default_left":[0,0,0,0,0,0,0,0,0,0,0,0,0,0,0,0,0,0,0,0,0,0,0,0,0,0,0,0,0,0,0,0,0,0,0,0,0,0,0,0,0,0,0,0,0,0,0,0,0,0,0,0,0,0,0,0,0,0,0,0,0,0,0,0,0,0,0,0,0,0,0,0,0,0,0,0,0,0,0],"id":4,"left_children":[1,3,5,7,9,11,13,15,17,19,21,23,25,27,-1,29,31,33,35,37,39,41,43,45,47,-1,49,-1,-1,51,53,-1,-1,-1,-1,-1,55,57,59,61,63,65,67,69,71,73,75,77,-1,-1,-1,-1,-1,-1,-1,-1,-1,-1,-1,-1,-1,-1,-1,-1,-1,-1,-1,-1,-1,-1,-1,-1,-1,-1,-1,-1,-1,-1,-1],"loss_changes":[8.989302E0,3.303665E0,2.672598E0,1.0359249E0,3.439591E0,1.4406099E0,2.577402E-1,7.632861E-1,8.8949454E-1,1.3644954E0,1.5154085E0,1.5125561E-1,2.3423185E0,1.0114901E-1,0E0,3.795538E-1,1.1473302E0,9.897094E-1,7.2899246E-1,8.0584836E-1,1.5740047E0,2.3379402E0,6.81901E-1,2.2241592E-1,7.8873235E-1,0E0,1.656E-1,0E0,0E0,4.2645216E-2,7.0926654E-1,0E0,0E0,0E0,0E0,0E0,9.4451714E-1,3.2503796E-1,7.712877E-1,6.5928423E-1,1.4650594E0,1.3292806E0,8.622161E-1,1.0208951E0,3.8989377E-1,7.744174E-1,1.17539406E-1,3.113122E-1,0E0,0E0,0E0,0E0,0E0,0E0,0E0,0E0,0E0,0E0,0E0,0E0,0E0,0E0,0E0,0E0,0E0,0E0,0E0,0E0,0E0,0E0,0E0,0E0,0E0,0E0,0E0,0E0,0E0,0E0,0E0],"parents":[2147483647,0,0,1,1,2,2,3,3,4,4,5,5,6,6,7,7,8,8,9,9,10,10,11,11,12,12,13,13,15,15,16,16,17,17,18,18,19,19,20,20,21,21,22,22,23,23,24,24,26,26,29,29,30,30,36,36,37,37,38,38,39,39,40,40,41,41,42,42,43,43,44,44,45,45,46,46,47,47],"right_children":[2,4,6,8,10,12,14,16,18,20,22,24,26,28,-1,30,32,34,36,38,40,42,44,46,48,-1,50,-1,-1,52,54,-1,-1,-1,-1,-1,56,58,60,62,64,66,68,70,72,74,76,78,-1,-1,-1,-1,-1,-1,-1,-1,-1,-1,-1,-1,-1,-1,-1,-1,-1,-1,-1,-1,-1,-1,-1,-1,-1,-1,-1,-1,-1,-1,-1],"split_conditions":[1.120108E2,-1.0363688E2,1.5428899E3,1.4564702E3,1.517881E3,2E0,1.3048485E2,-1.0763551E2,1.4659735E3,1.3923768E3,2E0,1.5108636E3,1.6256033E3,1.5490093E3,1.7477371E-1,1.3993075E3,1.3923768E3,1.460689E3,1.4739102E3,-8.261603E1,-3.4435867E1,2E0,-2.9221601E0,1.5615236E3,1.5310063E3,2.4112208E-1,1.679253E3,7.3307335E-2,-1.5999792E-2,1.5452059E3,1.4165135E3,1.9629346E-1,-1.0740169E-1,-2.607013E-2,2.6506922E-1,-1.4584184E-1,1.478364E3,-9.409366E1,-6.6911964E1,1.4631853E3,4.2223015E1,-5.4714737E1,1.5462533E3,2E0,5.405239E1,1.5515105E3,1.6473195E2,1.5190815E3,-1.521558E-1,-1.3333002E-1,1.8752356E-3,-9.8851085E-2,-1.6256358E-1,2.0267304E-2,-9.960032E-2,1.4756766E-1,-3.1218268E-2,4.1472204E-2,-1.1831601E-1,2.3950121E-1,6.655691E-2,1.14877865E-1,-6.042624E-2,7.0820414E-3,-2.2524381E-2,-1.9206909E-3,4.1506782E-2,3.6706053E-2,-1.2185124E-1,-3.3450784E-4,1.2409657E-1,1.6008899E-1,4.4349473E-2,-1.18084E-1,1.8093105E-2,-1.10410266E-1,-1.6128996E-1,-4.358538E-2,9.1918305E-2],"split_indices":[2,2,1,0,1,4,2,2,0,0,4,1,0,1,0,0,0,0,0,2,2,3,2,0,1,0,0,0,0,1,0,0,0,0,0,0,0,2,2,1,2,2,0,3,2,0,2,1,0,0,0,0,0,0,0,0,0,0,0,0,0,0,0,0,0,0,0,0,0,0,0,0,0,0,0,0,0,0,0],"split_type":[0,0,0,0,0,0,0,0,0,0,0,0,0,0,0,0,0,0,0,0,0,0,0,0,0,0,0,0,0,0,0,0,0,0,0,0,0,0,0,0,0,0,0,0,0,0,0,0,0,0,0,0,0,0,0,0,0,0,0,0,0,0,0,0,0,0,0,0,0,0,0,0,0,0,0,0,0,0,0],"sum_hessian":[1.5725419E3,1.4893961E3,8.3145676E1,7.08067E1,1.4185895E3,7.834677E1,4.7989078E0,4.056472E1,3.0241978E1,1.0080148E3,4.1057468E2,7.280761E1,5.539162E0,3.0193563E0,1.7795515E0,3.7985455E1,2.5792654E0,2.8781633E0,2.7363815E1,1.8911983E1,9.8910284E2,3.7051648E2,4.0058186E1,6.504144E1,7.7661633E0,1.9086219E0,3.6305404E0,1.3943938E0,1.6249623E0,1.8666174E1,1.9319283E1,1.2601757E0,1.3190898E0,1.8217453E0,1.0564181E0,3.2881293E0,2.4075686E1,2.9430773E0,1.5968905E1,4.779521E1,9.413076E2,3.5522467E2,1.5291837E1,2.3470984E1,1.65872E1,2.1496777E1,4.3544666E1,4.231883E0,3.5342805E0,2.6130958E0,1.0174447E0,1.187679E1,6.7893834E0,6.015603E0,1.33036785E1,2.0106568E0,2.206503E1,1.3556252E0,1.5874523E0,2.2457335E0,1.3723172E1,1.1137204E0,4.6681488E1,7.544791E2,1.8682848E2,8.245483E1,2.7276984E2,3.5592625E0,1.17325735E1,1.4367256E1,9.103727E0,1.2093952E1,4.493249E0,1.7056953E1,4.439823E0,2.1684614E1,2.1860052E1,2.3287525E0,1.9031303E0],"tree_param":{"num_deleted":"0","num_feature":"5","num_nodes":"79","size_leaf_vector":"1"}},{"base_weights":[-2.4677333E-4,-3.1627175E-1,2.250462E-1,-5.1492244E-1,-2.192745E-1,1.5105742E-1,4.185762E-1,-5.351224E-1,-4.0745795E-1,-2.7087253E-1,-9.533187E-2,1.7364515E-1,-8.595593E-2,4.607586E-1,-2.8314885E-1,-4.4001982E-1,-5.7493097E-1,-3.3339584E-1,-5.809178E-1,-1.9656672E-1,-3.2553267E-1,-8.051738E-2,-3.8192457E-1,1.2862226E-1,2.5306585E-1,-1.5313336E-1,3.221054E-1,4.0392882E-1,6.72579E-1,-3.6222253E-2,-4.7423053E-1,-4.5296612E-1,6.079931E-3,-5.880125E-1,-4.3380773E-1,-4.0435886E-1,-7.37236E-2,-1.990617E-1,5.9217896E-2,-2.5852203E-1,-9.332806E-2,-4.4699502E-1,-2.669291E-1,-9.230779E-2,1.8379901E-1,-1.8497129E-1,-1.09827444E-1,1.2109491E-1,3.8688228E-1,-1.06069505E-1,2.668485E-1,-1.7675833E-1,1.8168493E-1,4.5865536E-1,1.0765517E-3,4.2031482E-1,-4.0656546E-1,7.0812154E-1,1.4604115E-1,1.7247799E-1,-1.23783246E-1,-5.9627527E-1,-1.6302366E-2,-1.4746186E-1,-7.9587206E-2,6.069628E-2,-5.8241796E-2,-1.9990538E-1,-1.6200931E-1,4.2954274E-2,-1.675513E-1,-1.4743601E-1,-6.018529E-2,7.7669166E-2,-1.1041904E-1,-2.8033786E-2,-1.0998087E-1,1.1829595E-1,-3.231772E-2,-6.569449E-2,-1.458738E-1,-1.2884481E-1,-7.085471E-2,-2.4797384E-2,-1.6714369E-1,-7.667423E-2,1.5738338E-1,3.4601185E-2,-1.4280139E-1,3.801585E-2,-8.5921064E-2,-6.066468E-2,1.3741603E-1,7.452372E-2,-5.371572E-2,1.0622046E-1,6.709105E-2,-3.1589653E-2,-1.230767E-1,2.9103428E-2,1.6150965E-1,6.774353E-2,-5.76543E-2,1.3365214E-1,4.8368587E-4,4.181733E-2,-1.7318262E-1,3.9328963E-2,2.1533027E-1,1.7394164E-1,-4.97941E-2,-5.3672396E-2,1.246341E-1,-2.0993555E-1,-9.830453E-2,4.278473E-2,-5.117574E-2],"categories":[],"categories_nodes":[],"categories_segments":[],"categories_sizes":[],"default_left":[0,0,0,0,0,0,0,0,0,0,0,0,0,0,0,0,0,0,0,0,0,0,0,0,0,0,0,0,0,0,0,0,0,0,0,0,0,0,0,0,0,0,0,0,0,0,0,0,0,0,0,0,0,0,0,0,0,0,0,0,0,0,0,0,0,0,0,0,0,0,0,0,0,0,0,0,0,0,0,0,0,0,0,0,0,0,0,0,0,0,0,0,0,0,0,0,0,0,0,0,0,0,0,0,0,0,0,0,0,0,0,0,0,0,0,0,0],"id":5,"left_children":[1,3,5,7,9,11,13,15,17,19,21,23,25,27,29,31,33,35,37,39,41,43,45,47,49,51,53,55,57,59,61,63,65,67,69,71,73,-1,-1,75,77,79,81,83,85,-1,87,89,91,93,95,97,-1,99,101,103,105,107,109,111,-1,113,115,-1,-1,-1,-1,-1,-1,-1,-1,-1,-1,-1,-1,-1,-1,-1,-1,-1,-1,-1,-1,-1,-1,-1,-1,-1,-1,-1,-1,-1,-1,-1,-1,-1,-1,-1,-1,-1,-1,-1,-1,-1,-1,-1,-1,-1,-1,-1,-1,-1,-1,-1,-1,-1,-1],"loss_changes":[1.57921E2,1.7674606E1,1.8478668E1,4.3780518E-1,3.9520664E0,5.0384064E0,1.0714825E1,6.9776917E-1,4.743061E-1,1.7175636E0,7.520579E-1,3.0319538E0,2.305733E0,3.793213E0,9.68724E-1,4.5532417E-1,6.570816E-2,6.848831E-1,1.0448146E0,1.1811252E0,1.6687775E0,5.672624E-1,4.938233E-1,1.0203981E0,1.5579624E0,1.3861263E0,5.236852E-1,3.7401009E0,1.2052612E0,8.722639E-1,6.439953E-1,4.2098618E-1,1.6488421E-1,2.2731781E-1,1.4149098E0,4.379654E-1,1.0299993E0,0E0,0E0,2.0567212E0,5.49647E-1,6.119461E-1,7.5786877E-1,7.15184E-1,1.3132906E0,0E0,4.910048E-1,1.2622838E0,7.253995E-1,3.5847813E-1,1.0435581E0,1.1243725E0,0E0,1.8953812E-1,2.4191122E-1,2.7830925E0,6.2420213E-1,2.6906204E-1,8.652159E-1,6.9464827E-1,0E0,2.66788E-2,1.09885775E-1,0E0,0E0,0E0,0E0,0E0,0E0,0E0,0E0,0E0,0E0,0E0,0E0,0E0,0E0,0E0,0E0,0E0,0E0,0E0,0E0,0E0,0E0,0E0,0E0,0E0,0E0,0E0,0E0,0E0,0E0,0E0,0E0,0E0,0E0,0E0,0E0,0E0,0E0,0E0,0E0,0E0,0E0,0E0,0E0,0E0,0E0,0E0,0E0,0E0,0E0,0E0,0E0,0E0,0E0],"parents":[2147483647,0,0,1,1,2,2,3,3,4,4,5,5,6,6,7,7,8,8,9,9,10,10,11,11,12,12,13,13,14,14,15,15,16,16,17,17,18,18,19,19,20,20,21,21,22,22,23,23,24,24,25,25,26,26,27,27,28,28,29,29,30,30,31,31,32,32,33,33,34,34,35,35,36,36,39,39,40,40,41,41,42,42,43,43,44,44,46,46,47,47,48,48,49,49,50,50,51,51,53,53,54,54,55,55,56,56,57,57,58,58,59,59,61,61,62,62],"right_children":[2,4,6,8,10,12,14,16,18,20,22,24,26,28,30,32,34,36,38,40,42,44,46,48,50,52,54,56,58,60,62,64,66,68,70,72,74,-1,-1,76,78,80,82,84,86,-1,88,90,92,94,96,98,-1,100,102,104,106,108,110,112,-1,114,116,-1,-1,-1,-1,-1,-1,-1,-1,-1,-1,-1,-1,-1,-1,-1,-1,-1,-1,-1,-1,-1,-1,-1,-1,-1,-1,-1,-1,-1,-1,-1,-1,-1,-1,-1,-1,-1,-1,-1,-1,-1,-1,-1,-1,-1,-1,-1,-1,-1,-1,-1,-1,-1,-1],"split_conditions":[-1.4903811E0,-4.695471E1,5.8125805E1,1.5277645E3,-8.675557E0,1.5385486E3,1.560866E3,1.529517E3,1.6640857E3,1.5056115E3,1.548457E3,2.3688208E1,4.65219E1,1.4800856E2,1.6692994E3,2E0,2E0,1.5692095E3,2E0,1.4754353E3,1.4942241E3,1.5314321E3,1.5682966E3,2E0,1.4617952E3,1.679253E3,5.26774E1,1.664037E3,1.5172549E3,1E0,1.2447059E2,1.452471E3,1.5059745E3,1.4633317E3,1.4697747E3,-6.404152E1,1.5788225E3,-1.990617E-1,5.9217896E-2,1.453447E3,-2.6593012E1,1.4760752E3,1E0,1.5327223E3,-5.522257E0,-1.8497129E-1,1.6256033E3,2E0,5.757519E-1,2.5686169E1,3.2361874E1,3.443412E1,1.8168493E-1,1.5990681E3,1.556462E3,2E0,1.5404827E3,1.4582783E3,1.6473195E2,1.5726223E3,-1.23783246E-1,1.6996538E3,1.5796624E3,-1.4746186E-1,-7.9587206E-2,6.069628E-2,-5.8241796E-2,-1.9990538E-1,-1.6200931E-1,4.2954274E-2,-1.675513E-1,-1.4743601E-1,-6.018529E-2,7.7669166E-2,-1.1041904E-1,-2.8033786E-2,-1.0998087E-1,1.1829595E-1,-3.231772E-2,-6.569449E-2,-1.458738E-1,-1.2884481E-1,-7.085471E-2,-2.4797384E-2,-1.6714369E-1,-7.667423E-2,1.5738338E-1,3.4601185E-2,-1.4280139E-1,3.801585E-2,-8.5921064E-2,-6.066468E-2,1.3741603E-1,7.452372E-2,-5.371572E-2,1.0622046E-1,6.709105E-2,-3.1589653E-2,-1.230767E-1,2.9103428E-2,1.6150965E-1,6.774353E-2,-5.76543E-2,1.3365214E-1,4.8368587E-4,4.181733E-2,-1.7318262E-1,3.9328963E-2,2.1533027E-1,1.7394164E-1,-4.97941E-2,-5.3672396E-2,1.246341E-1,-2.0993555E-1,-9.830453E-2,4.278473E-2,-5.117574E-2],"split_indices":[2,2,2,0,2,1,1,1,1,1,0,2,2,2,0,4,4,0,4,0,0,0,1,3,0,0,2,0,1,3,2,0,1,0,0,2,0,0,0,0,2,0,4,1,2,0,0,4,2,2,2,2,0,0,1,4,1,0,2,1,0,0,1,0,0,0,0,0,0,0,0,0,0,0,0,0,0,0,0,0,0,0,0,0,0,0,0,0,0,0,0,0,0,0,0,0,0,0,0,0,0,0,0,0,0,0,0,0,0,0,0,0,0,0,0,0,0],"split_type":[0,0,0,0,0,0,0,0,0,0,0,0,0,0,0,0,0,0,0,0,0,0,0,0,0,0,0,0,0,0,0,0,0,0,0,0,0,0,0,0,0,0,0,0,0,0,0,0,0,0,0,0,0,0,0,0,0,0,0,0,0,0,0,0,0,0,0,0,0,0,0,0,0,0,0,0,0,0,0,0,0,0,0,0,0,0,0,0,0,0,0,0,0,0,0,0,0,0,0,0,0,0,0,0,0,0,0,0,0,0,0,0,0,0,0,0,0],"sum_hessian":[2.2160479E3,9.221365E2,1.2939114E3,3.0112433E2,6.2101215E2,9.3733704E2,3.5657434E2,2.5012843E2,5.099589E1,4.376362E2,1.8337596E2,8.56024E2,8.131306E1,3.3667914E2,1.989521E1,7.736265E1,1.7276578E2,3.778491E1,1.321098E1,1.8743304E2,2.5020316E2,1.7558083E2,7.795138E0,5.4799176E2,3.0803223E2,7.035546E1,1.0957597E1,2.677506E2,6.892852E1,9.19826E0,1.069695E1,7.516586E1,2.196789E0,1.5521162E2,1.7554148E1,2.923767E1,8.547238E0,1.2076471E1,1.1345096E0,1.1619705E2,7.123599E1,7.927326E1,1.709299E2,1.6870609E2,6.8747354E0,3.505838E0,4.2893E0,5.338994E2,1.4092352E1,1.1137062E1,2.9689517E2,6.8974846E1,1.3806101E0,7.3868766E0,3.5707204E0,2.6291656E2,4.834054E0,6.424684E1,4.681677E0,6.2657676E0,2.9324925E0,8.207431E0,2.4895191E0,6.1007706E1,1.4158156E1,1.1041151E0,1.0926739E0,5.4060375E1,1.0115125E2,3.0932066E0,1.4460941E1,1.9492815E1,9.744855E0,4.0692115E0,4.4780273E0,4.6713818E1,6.948324E1,1.2861587E0,6.994983E1,1.2608437E1,6.6664825E1,2.5125671E1,1.4580423E2,1.6642891E2,2.27718E0,3.112343E0,3.762392E0,3.0802546E0,1.2090454E0,5.273102E2,6.5892673E0,1.3205597E0,1.2771792E1,1.4910833E0,9.645979E0,9.59776E1,2.0091757E2,5.392317E1,1.5051681E1,1.734504E0,5.6523724E0,1.5730283E0,1.9976921E0,2.4793492E2,1.498164E1,1.1951723E0,3.6388817E0,1.2962391E0,6.2950603E1,1.5996547E0,3.082022E0,2.6691935E0,3.596574E0,4.765533E0,3.4418974E0,1.2635927E0,1.2259264E0],"tree_param":{"num_deleted":"0","num_feature":"5","num_nodes":"117","size_leaf_vector":"1"}},{"base_weights":[-4.1118353E-3,2.54738E-1,-1.9607967E-1,4.6821952E-1,1.9362827E-1,-1.23999454E-1,-3.1836337E-1,5.5299205E-1,3.8981855E-1,2.67505E-1,1.4174993E-1,-4.3476265E-2,-1.7059326E-1,-3.5609445E-1,1.3424326E-1,5.7605356E-1,4.6623857E-3,3.9832348E-1,-3.1125173E-2,2.799613E-1,-6.808717E-2,-8.250258E-2,1.5866847E-1,3.1293437E-1,-5.2041985E-2,-1.8336163E-1,2.3222813E-1,-4.1083E-1,-2.4166149E-1,1.8816815E-1,-1.3336824E-1,5.904241E-1,6.7839585E-2,-1.1656568E-1,9.682849E-2,3.5305992E-1,6.370324E-1,2.8580156E-1,-1.3472663E-1,-1.9781752E-1,2.4825546E-1,-2.009133E-1,1.6036677E-1,2.7633607E-1,1.3487378E-1,4.86799E-1,-1.7864324E-2,-3.2148946E-2,-2.2127388E-1,2.1992788E-2,-1.9466622E-1,3.2040256E-1,-1.0935226E-1,-2.689339E-1,-4.9592206E-1,-2.956779E-1,-1.5211263E-1,1.1048998E-1,2.2950825E-1,9.4291516E-2,1.8572292E-1,-2.1420348E-2,5.12728E-2,1.1393878E-1,-1.1897796E-1,2.0664595E-1,6.7309335E-2,1.01100214E-1,6.798599E-2,-1.1333718E-1,-2.547644E-2,1.3433833E-1,-1.0435137E-2,-8.913592E-3,-1.0642456E-1,9.6093364E-2,-3.6052123E-2,4.6277203E-2,1.4059205E-1,-5.6648646E-3,4.4573497E-2,4.4973668E-2,1.7662182E-1,8.371809E-2,-1.1961349E-2,-9.0692595E-2,7.7267864E-4,-7.248148E-2,5.3654138E-2,-1.1932494E-1,-5.3654633E-2,3.9276853E-2,1.332844E-1,-1.1206862E-1,-5.763032E-2,-1.54816E-1,-3.5749666E-2,-6.150839E-2,-1.05234385E-1,9.659075E-2,-6.8375364E-2,2.2352247E-1,1.4025471E-2],"categories":[],"categories_nodes":[],"categories_segments":[],"categories_sizes":[],"default_left":[0,0,0,0,0,0,0,0,0,0,0,0,0,0,0,0,0,0,0,0,0,0,0,0,0,0,0,0,0,0,0,0,0,0,0,0,0,0,0,0,0,0,0,0,0,0,0,0,0,0,0,0,0,0,0,0,0,0,0,0,0,0,0,0,0,0,0,0,0,0,0,0,0,0,0,0,0,0,0,0,0,0,0,0,0,0,0,0,0,0,0,0,0,0,0,0,0,0,0,0,0,0,0],"id":6,"left_children":[1,3,5,7,9,11,13,15,17,19,21,23,25,27,29,31,33,35,-1,37,39,41,43,45,47,49,51,53,55,57,-1,59,61,-1,-1,63,65,67,-1,69,71,73,75,77,79,81,-1,83,85,87,89,91,-1,93,95,97,99,101,-1,-1,-1,-1,-1,-1,-1,-1,-1,-1,-1,-1,-1,-1,-1,-1,-1,-1,-1,-1,-1,-1,-1,-1,-1,-1,-1,-1,-1,-1,-1,-1,-1,-1,-1,-1,-1,-1,-1,-1,-1,-1,-1,-1,-1],"loss_changes":[9.170318E1,1.0161373E1,9.300251E0,9.4210815E-1,2.3101826E0,2.4999504E0,6.747658E0,1.0254059E0,4.35421E-1,1.0708866E0,1.3867059E0,7.682212E-1,2.2182007E0,2.170681E0,1.0485764E0,5.296955E-1,6.6195107E-1,7.7451515E-1,0E0,1.1621914E0,4.516856E-1,7.8154963E-1,9.062576E-1,4.1257572E-1,8.054935E-1,9.573679E-1,8.238061E-1,2.8093681E0,5.3396845E-1,1.2141849E0,0E0,4.046154E-1,5.920551E-2,0E0,0E0,1.7539968E0,1.3397026E-1,6.5535927E-1,0E0,1.2057239E-1,2.0174517E-1,4.6246874E-1,4.4664234E-1,1.2360439E0,5.9757566E-1,5.416435E-2,0E0,5.330074E-1,4.5824552E-1,9.660667E-1,1.1791973E0,2.2912312E-1,0E0,6.802702E-1,1.0850716E0,2.9570007E-1,1.7657765E0,1.0456086E0,0E0,0E0,0E0,0E0,0E0,0E0,0E0,0E0,0E0,0E0,0E0,0E0,0E0,0E0,0E0,0E0,0E0,0E0,0E0,0E0,0E0,0E0,0E0,0E0,0E0,0E0,0E0,0E0,0E0,0E0,0E0,0E0,0E0,0E0,0E0,0E0,0E0,0E0,0E0,0E0,0E0,0E0,0E0,0E0,0E0],"parents":[2147483647,0,0,1,1,2,2,3,3,4,4,5,5,6,6,7,7,8,8,9,9,10,10,11,11,12,12,13,13,14,14,15,15,16,16,17,17,19,19,20,20,21,21,22,22,23,23,24,24,25,25,26,26,27,27,28,28,29,29,31,31,32,32,35,35,36,36,37,37,39,39,40,40,41,41,42,42,43,43,44,44,45,45,47,47,48,48,49,49,50,50,51,51,53,53,54,54,55,55,56,56,57,57],"right_children":[2,4,6,8,10,12,14,16,18,20,22,24,26,28,30,32,34,36,-1,38,40,42,44,46,48,50,52,54,56,58,-1,60,62,-1,-1,64,66,68,-1,70,72,74,76,78,80,82,-1,84,86,88,90,92,-1,94,96,98,100,102,-1,-1,-1,-1,-1,-1,-1,-1,-1,-1,-1,-1,-1,-1,-1,-1,-1,-1,-1,-1,-1,-1,-1,-1,-1,-1,-1,-1,-1,-1,-1,-1,-1,-1,-1,-1,-1,-1,-1,-1,-1,-1,-1,-1,-1],"split_conditions":[-5.522257E0,-7.7163765E1,3.508325E1,1.4505349E3,-3.036365E1,4.039108E0,1.560866E3,2E0,1.5916669E3,2E0,1.452471E3,1E0,1.5990681E3,1.4952751E3,1.2447059E2,-7.976284E1,1.4165135E3,1.5454286E3,-3.1125173E-2,1.7059688E3,1.5213337E3,-1.5604539E1,1.4739102E3,1.580052E3,1.5221174E3,1.4442002E3,1.640382E3,1.5249088E3,7.743598E1,1.00064384E2,-1.3336824E-1,1.4724238E3,1.4165135E3,-1.1656568E-1,9.682849E-2,1.5413153E3,-7.976284E1,1.5366558E3,-1.3472663E-1,1.482327E3,1.5592168E3,1.4409824E3,1.4429546E3,-1.4254655E1,1.4927722E3,1.5286288E3,-1.7864324E-2,1.4388099E3,1.5540743E3,1.630847E1,1.4582058E3,2.3688208E1,-1.0935226E-1,1.4981927E3,2E0,1.5655079E3,1.5916669E3,3.673316E1,2.2950825E-1,9.4291516E-2,1.8572292E-1,-2.1420348E-2,5.12728E-2,1.1393878E-1,-1.1897796E-1,2.0664595E-1,6.7309335E-2,1.01100214E-1,6.798599E-2,-1.1333718E-1,-2.547644E-2,1.3433833E-1,-1.0435137E-2,-8.913592E-3,-1.0642456E-1,9.6093364E-2,-3.6052123E-2,4.6277203E-2,1.4059205E-1,-5.6648646E-3,4.4573497E-2,4.4973668E-2,1.7662182E-1,8.371809E-2,-1.1961349E-2,-9.0692595E-2,7.7267864E-4,-7.248148E-2,5.3654138E-2,-1.1932494E-1,-5.3654633E-2,3.9276853E-2,1.332844E-1,-1.1206862E-1,-5.763032E-2,-1.54816E-1,-3.5749666E-2,-6.150839E-2,-1.05234385E-1,9.659075E-2,-6.8375364E-2,2.2352247E-1,1.4025471E-2],"split_indices":[2,2,2,0,2,2,1,4,0,3,0,4,0,1,2,2,0,0,0,1,0,2,0,0,1,1,1,0,2,2,0,1,0,0,0,0,2,1,0,0,0,0,0,2,1,1,0,0,0,2,1,2,0,0,4,0,0,2,0,0,0,0,0,0,0,0,0,0,0,0,0,0,0,0,0,0,0,0,0,0,0,0,0,0,0,0,0,0,0,0,0,0,0,0,0,0,0,0,0,0,0,0,0],"split_type":[0,0,0,0,0,0,0,0,0,0,0,0,0,0,0,0,0,0,0,0,0,0,0,0,0,0,0,0,0,0,0,0,0,0,0,0,0,0,0,0,0,0,0,0,0,0,0,0,0,0,0,0,0,0,0,0,0,0,0,0,0,0,0,0,0,0,0,0,0,0,0,0,0,0,0,0,0,0,0,0,0,0,0,0,0,0,0,0,0,0,0,0,0,0,0,0,0,0,0,0,0,0,0],"sum_hessian":[1.843469E3,7.848494E2,1.0586195E3,1.7318408E2,6.1166534E2,6.6729565E2,3.9132394E2,8.030228E1,9.28818E1,2.5061855E2,3.610468E2,2.453009E2,4.2199472E2,3.614087E2,2.9915226E1,7.701274E1,3.2895415E0,9.149812E1,1.383677E0,2.4180899E2,8.809545E0,2.5056091E1,3.3599072E2,4.923087E0,2.403778E2,4.0955765E2,1.2437087E1,2.4272052E2,1.1868818E2,2.7983057E1,1.932169E0,7.4737656E1,2.275084E0,1.3720353E0,1.9175062E0,7.899774E1,1.2500376E1,2.4049046E2,1.3185356E0,6.5131936E0,2.2963512E0,1.6960007E1,8.096084E0,5.473018E1,2.8126056E2,3.1471677E0,1.7759192E0,2.1615855E2,2.4219252E1,2.1320091E1,3.8823755E2,1.1239411E1,1.1976756E0,9.2549385E1,1.5017113E2,7.2595985E1,4.6092194E1,2.5712257E1,2.2707996E0,8.151556E0,6.65861E1,1.098429E0,1.1766549E0,7.675373E1,2.2440112E0,1.0511994E1,1.9883815E0,1.2642413E2,1.1406632E2,1.6062442E0,4.9069495E0,1.0054379E0,1.2909133E0,8.59163E0,8.368377E0,5.066027E0,3.030056E0,3.4580128E1,2.015005E1,2.2986635E1,2.582739E2,1.3050153E0,1.8421525E0,4.3830266E0,2.1177553E2,1.752471E1,6.694543E0,7.752127E0,1.3567963E1,2.630867E1,3.619289E2,5.2563624E0,5.983049E0,3.7551327E1,5.4998062E1,1.4220306E2,7.96807E0,2.9230314E1,4.3365673E1,5.9064245E0,4.0185772E1,1.3711728E0,2.4341085E1],"tree_param":{"num_deleted":"0","num_feature":"5","num_nodes":"103","size_leaf_vector":"1"}},{"base_weights":[7.428928E-3,2.1303173E-2,-2.6612288E-1,-1.01105504E-1,3.2926492E-2,-3.0994207E-1,2.833839E-1,-1.9515666E-1,1.8880786E-2,7.498956E-3,1.0113745E-1,-3.474115E-1,1.21602386E-1,7.6438256E-2,1.4299044E-1,-1.4457709E-1,-1.5127762E-1,2.7980632E-1,-3.6108367E-2,7.325895E-1,3.8170181E-3,1.2835036E-1,-2.9352378E-2,-2.503254E-1,-3.8300574E-1,2.2258636E-1,-2.6908112E-1,5.4061014E-2,-1.5885971E-2,1.420293E-1,-1.8045472E-1,1.1438988E-2,7.122334E-1,-1.7220022E-1,8.15411E-2,2.721785E-1,5.8925627E-3,-1.6665626E-1,1.1136515E-2,4.5790806E-1,1.203756E-1,2.1022788E-1,-9.127835E-2,-3.455503E-1,8.510842E-2,-4.162515E-1,-1.8363287E-1,-1.0377741E-1,-6.177651E-4,-4.3099836E-2,-1.3564494E-1,9.2554964E-2,-7.637715E-2,6.227323E-2,2.4736078E-1,-5.004126E-3,-1.3295509E-1,9.842182E-2,-1.77399E-2,4.219043E-2,-6.466642E-2,4.025559E-2,-8.902066E-5,1.7473607E-1,2.6628483E-4,-7.3696904E-2,3.826201E-2,3.2252327E-2,1.9029818E-1,-4.445777E-3,-1.0070047E-1,-2.1835724E-2,-1.2513465E-1,-5.7625588E-2,1.3980931E-1,-9.5831245E-2,-1.4925705E-1,2.9006893E-2,-1.4396422E-1],"categories":[],"categories_nodes":[],"categories_segments":[],"categories_sizes":[],"default_left":[0,0,0,0,0,0,0,0,0,0,0,0,0,0,0,0,0,0,0,0,0,0,0,0,0,0,0,0,0,0,0,0,0,0,0,0,0,0,0,0,0,0,0,0,0,0,0,0,0,0,0,0,0,0,0,0,0,0,0,0,0,0,0,0,0,0,0,0,0,0,0,0,0,0,0,0,0,0,0],"id":7,"left_children":[1,3,5,7,9,11,13,15,17,19,21,23,25,27,-1,-1,29,31,33,35,37,39,41,43,45,-1,47,-1,-1,-1,49,51,53,55,57,-1,-1,59,61,63,65,67,69,71,73,75,77,-1,-1,-1,-1,-1,-1,-1,-1,-1,-1,-1,-1,-1,-1,-1,-1,-1,-1,-1,-1,-1,-1,-1,-1,-1,-1,-1,-1,-1,-1,-1,-1],"loss_changes":[5.932952E0,2.1194134E0,1.9048281E0,1.4619429E0,2.3564277E0,1.1800232E0,2.073352E-1,8.397269E-1,8.3790255E-1,2.6431277E0,1.313983E0,1.2875366E-1,1.7415843E0,6.505202E-2,0E0,0E0,1.258553E0,1.1705334E0,7.9117984E-1,6.0508204E-1,1.2335106E0,7.477431E-1,9.7587013E-1,6.786212E-1,2.2632694E-1,0E0,9.444508E-2,0E0,0E0,0E0,5.568795E-1,6.5417504E-1,4.8353434E-2,9.5457643E-1,9.457616E-1,0E0,0E0,6.418655E-1,1.3328571E0,3.900106E-1,8.170724E-1,5.2194965E-1,9.6549165E-1,2.8252172E-1,6.487731E-1,1.4289808E-1,7.3713636E-1,0E0,0E0,0E0,0E0,0E0,0E0,0E0,0E0,0E0,0E0,0E0,0E0,0E0,0E0,0E0,0E0,0E0,0E0,0E0,0E0,0E0,0E0,0E0,0E0,0E0,0E0,0E0,0E0,0E0,0E0,0E0,0E0],"parents":[2147483647,0,0,1,1,2,2,3,3,4,4,5,5,6,6,7,7,8,8,9,9,10,10,11,11,12,12,13,13,16,16,17,17,18,18,19,19,20,20,21,21,22,22,23,23,24,24,26,26,30,30,31,31,32,32,33,33,34,34,37,37,38,38,39,39,40,40,41,41,42,42,43,43,44,44,45,45,46,46],"right_children":[2,4,6,8,10,12,14,16,18,20,22,24,26,28,-1,-1,30,32,34,36,38,40,42,44,46,-1,48,-1,-1,-1,50,52,54,56,58,-1,-1,60,62,64,66,68,70,72,74,76,78,-1,-1,-1,-1,-1,-1,-1,-1,-1,-1,-1,-1,-1,-1,-1,-1,-1,-1,-1,-1,-1,-1,-1,-1,-1,-1,-1,-1,-1,-1,-1,-1],"split_conditions":[1.120108E2,-7.288925E1,1.5428899E3,1.4739102E3,1.517881E3,2E0,1.3048485E2,1.3453654E3,1.5796624E3,-6.6911964E1,1.5990681E3,1.5615236E3,1.6182609E3,1.5490093E3,1.4299044E-1,-1.4457709E-1,1.4724238E3,1.5726223E3,1.6274626E3,1.5043971E3,-3.4435867E1,-7.051046E1,1.450329E1,1.5515105E3,1.5108636E3,2.2258636E-1,1.5127211E3,5.4061014E-2,-1.5885971E-2,1.420293E-1,1.4670687E3,-7.976284E1,1.4851237E3,1.6099407E3,1.647371E3,2.721785E-1,5.8925627E-3,1.4631853E3,1.4617952E3,1.5155513E3,1.4739102E3,1.6578848E3,1.5969106E3,1.2447059E2,1.4800856E2,1.6473195E2,1.5310063E3,-1.0377741E-1,-6.177651E-4,-4.3099836E-2,-1.3564494E-1,9.2554964E-2,-7.637715E-2,6.227323E-2,2.4736078E-1,-5.004126E-3,-1.3295509E-1,9.842182E-2,-1.77399E-2,4.219043E-2,-6.466642E-2,4.025559E-2,-8.902066E-5,1.7473607E-1,2.6628483E-4,-7.3696904E-2,3.826201E-2,3.2252327E-2,1.9029818E-1,-4.445777E-3,-1.0070047E-1,-2.1835724E-2,-1.2513465E-1,-5.7625588E-2,1.3980931E-1,-9.5831245E-2,-1.4925705E-1,2.9006893E-2,-1.4396422E-1],"split_indices":[2,2,1,0,1,4,2,0,1,2,0,0,0,1,0,0,1,1,1,1,2,2,2,0,1,0,1,0,0,0,0,2,0,1,1,0,0,1,0,0,0,0,1,2,2,2,1,0,0,0,0,0,0,0,0,0,0,0,0,0,0,0,0,0,0,0,0,0,0,0,0,0,0,0,0,0,0,0,0],"split_type":[0,0,0,0,0,0,0,0,0,0,0,0,0,0,0,0,0,0,0,0,0,0,0,0,0,0,0,0,0,0,0,0,0,0,0,0,0,0,0,0,0,0,0,0,0,0,0,0,0,0,0,0,0,0,0,0,0,0,0,0,0,0,0,0,0,0,0,0,0,0,0,0,0,0,0,0,0,0,0],"sum_hessian":[1.5607325E3,1.4862726E3,7.445998E1,1.2822266E2,1.3580499E3,6.936462E1,5.0953617E0,7.1528564E1,5.66941E1,9.900799E2,3.6796997E2,6.400247E1,5.3621464E0,3.1343908E0,1.9609709E0,8.167529E0,6.3361034E1,9.156723E0,4.7537376E1,4.001942E0,9.8607794E2,3.0448727E2,6.34827E1,1.9324932E1,4.4677536E1,1.7245991E0,3.6375473E0,1.5215164E0,1.6128745E0,2.1478324E0,6.12132E1,6.2835565E0,2.8731668E0,2.182615E1,2.5711226E1,2.9954956E0,1.0064466E0,3.9699352E1,9.463786E2,5.8610053E0,2.9862628E2,1.2546759E1,5.093594E1,1.5028418E1,4.2965136E0,3.735991E1,7.3176284E0,2.595207E0,1.0423403E0,5.525961E1,5.953593E0,2.8930988E0,3.3904576E0,1.0414698E0,1.831697E0,1.454195E1,7.2842007E0,8.857061E0,1.6854164E1,5.192465E0,3.4506886E1,7.9545425E1,8.668332E2,4.390157E0,1.4708477E0,5.093809E0,2.9353247E2,1.1109459E1,1.4372997E0,3.9605667E1,1.1330275E1,3.5427139E0,1.1485703E1,2.7737901E0,1.5227236E0,1.929979E1,1.806012E1,4.105986E0,3.211642E0],"tree_param":{"num_deleted":"0","num_feature":"5","num_nodes":"79","size_leaf_vector":"1"}},{"base_weights":[-1.8532055E-3,-2.4546511E-1,1.7648642E-1,-3.9097765E-1,-1.4563224E-1,1.4445885E-1,4.6810237E-1,-4.2605555E-1,-2.7930388E-1,-1.9324692E-1,-6.83031E-2,1.63731E-1,-3.0072836E-2,5.2061445E-1,-2.8035316E-1,-4.3709645E-1,-2.6894075E-1,1.07103605E-2,-3.1775695E-1,-1.3438223E-1,-2.4748307E-1,-5.47642E-2,-3.63023E-1,1.0237127E-1,2.2820705E-1,-1.1818055E-1,1.0027586E-1,5.847084E-1,3.3004814E-1,2.731208E-2,-3.7580234E-1,-3.5523012E-1,-4.6700522E-1,-7.030795E-2,-4.8540685E-1,-2.5056943E-1,3.2352635E-1,-2.0050822E-1,-2.8236938E-1,-1.968517E-1,-5.8398392E-2,-3.8473114E-1,-1.9299276E-1,-6.706273E-2,2.1878621E-1,-1.695849E-1,-1.3571246E-1,9.444494E-2,3.8064548E-1,2.4197924E-1,-4.6270974E-2,4.48042E-1,-1.5320748E-1,2.1422504E-1,-2.9334328E-1,5.941901E-1,1.780823E-1,-2.2901851E-1,3.8572285E-1,-1.7447795E-1,2.0461638E-2,-1.1096608E-1,-1.3373782E-2,-1.6656825E-1,-1.3142337E-1,2.897695E-2,-9.1840826E-2,-7.885425E-2,-1.8494081E-1,5.5540916E-2,-1.1086103E-1,2.2100972E-2,1.8942454E-1,8.011452E-2,-9.1196656E-2,-8.722094E-3,-8.91252E-2,3.9549295E-2,-2.6937315E-2,-1.547298E-1,-9.8829314E-2,9.629071E-2,-6.297057E-2,-1.783164E-2,-1.5181777E-1,-6.2844224E-2,1.4363617E-1,3.457544E-2,-1.5143828E-1,3.5063848E-2,2.94767E-3,7.924151E-2,1.650633E-1,4.9136385E-2,8.481341E-2,8.691429E-3,-1.4725739E-1,-5.5079204E-3,1.8086952E-1,-1.1877435E-1,-3.078053E-2,9.2134535E-2,1.623254E-2,1.3941349E-1,-1.55703E-1,1.4464578E-1,1.9662976E-1,-5.277272E-2,1.306679E-1,-9.610552E-3,-1.0158211E-1,-5.6852106E-2,1.314203E-1,1.5176445E-1,-1.3198543E-1],"categories":[],"categories_nodes":[],"categories_segments":[],"categories_sizes":[],"default_left":[0,0,0,0,0,0,0,0,0,0,0,0,0,0,0,0,0,0,0,0,0,0,0,0,0,0,0,0,0,0,0,0,0,0,0,0,0,0,0,0,0,0,0,0,0,0,0,0,0,0,0,0,0,0,0,0,0,0,0,0,0,0,0,0,0,0,0,0,0,0,0,0,0,0,0,0,0,0,0,0,0,0,0,0,0,0,0,0,0,0,0,0,0,0,0,0,0,0,0,0,0,0,0,0,0,0,0,0,0,0,0,0,0,0,0],"id":8,"left_children":[1,3,5,7,9,11,13,15,17,19,21,23,25,27,29,31,33,35,37,39,41,43,45,47,49,51,53,55,57,-1,59,61,63,65,67,69,71,-1,73,75,77,79,81,83,85,-1,87,89,91,93,95,97,99,101,103,105,107,109,111,-1,113,-1,-1,-1,-1,-1,-1,-1,-1,-1,-1,-1,-1,-1,-1,-1,-1,-1,-1,-1,-1,-1,-1,-1,-1,-1,-1,-1,-1,-1,-1,-1,-1,-1,-1,-1,-1,-1,-1,-1,-1,-1,-1,-1,-1,-1,-1,-1,-1,-1,-1,-1,-1,-1,-1],"loss_changes":[9.423589E1,1.3260712E1,1.1628536E1,1.3399544E0,1.9946489E0,3.8051796E0,4.9991035E0,3.707924E-1,1.0285735E0,1.0425024E0,8.155041E-1,4.00259E0,1.3118718E0,1.2206192E0,3.4423262E-1,4.742241E-1,8.7239194E-1,1.0397207E0,8.187046E-1,7.658701E-1,1.2284174E0,6.92042E-1,3.3787346E-1,1.1181259E0,1.8838787E0,1.4173033E0,2.1348054E0,2.2310066E-1,1.0664582E0,0E0,5.951606E-1,3.210411E-1,2.3731232E-1,5.083292E-1,1.2730145E-1,4.2890424E-1,3.9771116E-1,0E0,9.778075E-1,1.4957314E0,4.615999E-1,1.8149757E-1,1.1683807E0,6.173577E-1,1.091007E0,0E0,5.73344E-1,9.6715736E-1,1.344223E-1,1.4566097E0,8.3408594E-1,3.1559426E-1,7.550833E-1,5.248002E-1,2.0874972E0,2.530594E-1,3.839513E-1,6.41347E-2,9.5474625E-1,0E0,9.848566E-1,0E0,0E0,0E0,0E0,0E0,0E0,0E0,0E0,0E0,0E0,0E0,0E0,0E0,0E0,0E0,0E0,0E0,0E0,0E0,0E0,0E0,0E0,0E0,0E0,0E0,0E0,0E0,0E0,0E0,0E0,0E0,0E0,0E0,0E0,0E0,0E0,0E0,0E0,0E0,0E0,0E0,0E0,0E0,0E0,0E0,0E0,0E0,0E0,0E0,0E0,0E0,0E0,0E0,0E0],"parents":[2147483647,0,0,1,1,2,2,3,3,4,4,5,5,6,6,7,7,8,8,9,9,10,10,11,11,12,12,13,13,14,14,15,15,16,16,17,17,18,18,19,19,20,20,21,21,22,22,23,23,24,24,25,25,26,26,27,27,28,28,30,30,31,31,32,32,33,33,34,34,35,35,36,36,38,38,39,39,40,40,41,41,42,42,43,43,44,44,46,46,47,47,48,48,49,49,50,50,51,51,52,52,53,53,54,54,55,55,56,56,57,57,58,58,60,60],"right_children":[2,4,6,8,10,12,14,16,18,20,22,24,26,28,30,32,34,36,38,40,42,44,46,48,50,52,54,56,58,-1,60,62,64,66,68,70,72,-1,74,76,78,80,82,84,86,-1,88,90,92,94,96,98,100,102,104,106,108,110,112,-1,114,-1,-1,-1,-1,-1,-1,-1,-1,-1,-1,-1,-1,-1,-1,-1,-1,-1,-1,-1,-1,-1,-1,-1,-1,-1,-1,-1,-1,-1,-1,-1,-1,-1,-1,-1,-1,-1,-1,-1,-1,-1,-1,-1,-1,-1,-1,-1,-1,-1,-1,-1,-1,-1,-1],"split_conditions":[-6.955764E-1,-3.337103E1,1.120108E2,-4.695471E1,-8.675557E0,1.5385486E3,1.5366558E3,1.5606812E3,1.4896147E3,1.5056115E3,1.548457E3,2.3688208E1,4.4985733E1,1.485356E3,1.6692994E3,1.529517E3,1.6640857E3,-3.911036E1,1.4993851E3,1.4925638E3,1.4952482E3,1.5314321E3,1.5682966E3,2E0,2E0,1.5067594E0,1.664037E3,2E0,1.6220442E3,2.731208E-2,1.570312E3,-4.8471844E1,1.452471E3,1.5788225E3,-8.261603E1,-4.394907E1,1.4778569E3,-2.0050822E-1,1.4641184E3,1.453447E3,-2.5966871E1,1.4846442E3,1.4958281E3,1.5277645E3,-5.522257E0,-1.695849E-1,-2.3951669E0,1.5024159E3,1.4919682E1,1.5168866E3,1.5261349E3,3.6199847E-1,5.951306E0,1.560866E3,6.406864E1,1.5615236E3,1.6182609E3,1.4957789E3,1.4901925E3,-1.7447795E-1,1.5832839E3,-1.1096608E-1,-1.3373782E-2,-1.6656825E-1,-1.3142337E-1,2.897695E-2,-9.1840826E-2,-7.885425E-2,-1.8494081E-1,5.5540916E-2,-1.1086103E-1,2.2100972E-2,1.8942454E-1,8.011452E-2,-9.1196656E-2,-8.722094E-3,-8.91252E-2,3.9549295E-2,-2.6937315E-2,-1.547298E-1,-9.8829314E-2,9.629071E-2,-6.297057E-2,-1.783164E-2,-1.5181777E-1,-6.2844224E-2,1.4363617E-1,3.457544E-2,-1.5143828E-1,3.5063848E-2,2.94767E-3,7.924151E-2,1.650633E-1,4.9136385E-2,8.481341E-2,8.691429E-3,-1.4725739E-1,-5.5079204E-3,1.8086952E-1,-1.1877435E-1,-3.078053E-2,9.2134535E-2,1.623254E-2,1.3941349E-1,-1.55703E-1,1.4464578E-1,1.9662976E-1,-5.277272E-2,1.306679E-1,-9.610552E-3,-1.0158211E-1,-5.6852106E-2,1.314203E-1,1.5176445E-1,-1.3198543E-1],"split_indices":[2,2,2,2,2,1,1,0,1,1,0,2,2,1,0,1,1,2,1,1,0,0,1,3,4,2,0,4,0,0,1,2,0,0,2,2,1,0,0,0,2,0,0,0,2,0,2,1,2,0,1,2,2,1,2,0,0,1,1,0,1,0,0,0,0,0,0,0,0,0,0,0,0,0,0,0,0,0,0,0,0,0,0,0,0,0,0,0,0,0,0,0,0,0,0,0,0,0,0,0,0,0,0,0,0,0,0,0,0,0,0,0,0,0,0],"split_type":[0,0,0,0,0,0,0,0,0,0,0,0,0,0,0,0,0,0,0,0,0,0,0,0,0,0,0,0,0,0,0,0,0,0,0,0,0,0,0,0,0,0,0,0,0,0,0,0,0,0,0,0,0,0,0,0,0,0,0,0,0,0,0,0,0,0,0,0,0,0,0,0,0,0,0,0,0,0,0,0,0,0,0,0,0,0,0,0,0,0,0,0,0,0,0,0,0,0,0,0,0,0,0,0,0,0,0,0,0,0,0,0,0,0,0],"sum_hessian":[2.167055E3,9.157559E2,1.2512988E3,3.7144128E2,5.4431464E2,1.1288185E3,1.22480415E2,2.8051376E2,9.092752E1,3.359547E2,2.0835995E2,1.0166228E3,1.12195656E2,1.14734955E2,7.745458E0,2.6043054E2,2.0083197E1,1.0729177E1,8.019834E1,1.6277075E2,1.7318396E2,2.003424E2,8.01755E0,5.222257E2,4.943971E2,6.700066E1,4.5194984E1,8.431028E1,3.0424679E1,1.5930566E0,6.152402E0,7.313167E1,1.8729889E2,1.1163857E1,8.919338E0,5.9545894E0,4.7745876E0,5.7126975E0,7.448564E1,8.8456375E1,7.431437E1,4.7494953E1,1.2568901E2,1.9244513E2,7.8972797E0,3.45578E0,4.5617704E0,5.0906494E2,1.31607485E1,4.7088824E2,2.3508854E1,3.2163239E0,6.3784344E1,3.540214E1,9.792844E0,8.193836E1,2.3719158E0,2.473464E0,2.7951214E1,3.7415965E0,2.4108052E0,6.965462E1,3.477052E0,4.175651E1,1.4554237E2,6.883068E0,4.2807894E0,4.419696E0,4.499643E0,1.1578579E0,4.7967315E0,3.3197966E0,1.4547911E0,2.3902326E0,7.209541E1,3.3563976E1,5.48924E1,1.0073397E1,6.4240974E1,1.162429E1,3.5870663E1,3.4306479E0,1.2225836E2,1.9027605E2,2.1690726E0,3.0566883E0,4.8405914E0,3.1247642E0,1.4370062E0,4.0208237E2,1.0698258E2,9.31691E0,3.8438387E0,1.6300233E2,3.0788593E2,2.0905602E1,2.6032526E0,1.0214192E0,2.1949048E0,9.827547E0,5.3956795E1,2.1823423E1,1.3578719E1,2.0034873E0,7.7893567E0,3.209544E1,4.9842922E1,1.132164E0,1.2397518E0,1.3461342E0,1.1273298E0,2.112799E0,2.5838415E1,1.1254606E0,1.2853445E0],"tree_param":{"num_deleted":"0","num_feature":"5","num_nodes":"115","size_leaf_vector":"1"}},{"base_weights":[-5.816451E-3,1.9012277E-1,-1.607594E-1,3.0922207E-1,1.2344105E-1,-9.814946E-2,-2.6798135E-1,4.0342742E-1,2.6068005E-1,-1.9156665E-2,1.3351324E-1,-3.4069777E-2,-1.3759269E-1,-3.0082256E-1,1.3798873E-1,4.333634E-1,1.12952955E-1,-1.2838596E-1,2.734213E-1,-6.9842264E-2,5.2814525E-1,3.0029416E-1,1.1643196E-1,2.7726713E-1,-4.1805424E-2,-1.6526514E-1,-1.4091092E-2,-3.5956547E-1,-1.8964212E-1,1.9737326E-1,7.165416E-2,4.0155333E-1,2.0251898E-1,-3.410337E-1,2.1351139E-1,-4.5992517E-1,2.7171794E-1,9.92223E-2,2.88753E-1,1.1558741E-1,-2.710376E-1,3.919475E-2,1.9927324E-1,3.531676E-1,-1.3229893E-1,-5.13211E-2,1.3130453E-1,4.2661428E-1,-1.6419137E-2,-2.4432197E-2,-1.9342847E-1,-6.667312E-2,-2.2293316E-1,-6.032712E-2,3.3866137E-1,-2.2934566E-1,-4.521669E-1,-2.4520214E-1,-9.43613E-2,1.2295351E-1,-1.2370932E-1,1.3141005E-1,-1.5233696E-2,-3.3204455E-2,-1.5006167E-1,-2.2689776E-2,-1.7116328E-1,1.7349935E-1,-4.6156026E-2,1.8812992E-1,-1.5828079E-2,9.040711E-2,1.42009305E-2,-2.3915485E-2,1.9288133E-1,1.5056633E-3,-9.945199E-2,1.6277401E-1,8.7114975E-2,4.457558E-2,-5.4786347E-2,6.5910816E-2,2.9323315E-2,4.717488E-2,1.5883191E-1,-1.00529E-2,6.559627E-2,-7.030193E-2,4.936149E-2,-1.13324106E-1,-1.1408013E-2,-1.3107975E-2,-7.301384E-2,2.6625747E-2,-4.4968117E-2,1.3383971E-1,-5.389538E-2,-1.050717E-1,-4.376346E-2,-1.4224859E-1,-2.7333582E-2,-6.274311E-2,-1.3400003E-1,1.7393629E-1,-4.3402877E-2,-3.614148E-2,8.692425E-2],"categories":[],"categories_nodes":[],"categories_segments":[],"categories_sizes":[],"default_left":[0,0,0,0,0,0,0,0,0,0,0,0,0,0,0,0,0,0,0,0,0,0,0,0,0,0,0,0,0,0,0,0,0,0,0,0,0,0,0,0,0,0,0,0,0,0,0,0,0,0,0,0,0,0,0,0,0,0,0,0,0,0,0,0,0,0,0,0,0,0,0,0,0,0,0,0,0,0,0,0,0,0,0,0,0,0,0,0,0,0,0,0,0,0,0,0,0,0,0,0,0,0,0,0,0,0,0],"id":9,"left_children":[1,3,5,7,9,11,13,15,17,19,21,23,25,27,29,31,33,35,37,39,41,43,45,47,49,51,53,55,57,-1,59,61,-1,63,-1,65,67,69,71,73,75,-1,-1,77,-1,79,81,83,-1,85,87,89,91,93,95,97,99,101,103,105,-1,-1,-1,-1,-1,-1,-1,-1,-1,-1,-1,-1,-1,-1,-1,-1,-1,-1,-1,-1,-1,-1,-1,-1,-1,-1,-1,-1,-1,-1,-1,-1,-1,-1,-1,-1,-1,-1,-1,-1,-1,-1,-1,-1,-1,-1,-1],"loss_changes":[5.4717968E1,6.282612E0,6.730089E0,1.1981258E0,7.37772E-1,1.6052995E0,4.9806194E0,7.779236E-1,9.814892E-1,9.9797297E-1,1.3274746E0,5.9930336E-1,1.3440614E0,2.1722488E0,9.3271434E-1,3.8901138E-1,3.0253475E0,1.018271E0,4.659176E-1,1.2472734E0,7.840133E-2,1.8723476E0,1.0931454E0,3.231887E-1,6.247895E-1,1.8144875E0,1.214435E0,2.5894127E0,6.1586237E-1,0E0,7.041834E-1,1.3148899E0,0E0,1.8290108E-1,0E0,1.2918663E-1,5.6919277E-1,1.357101E0,5.0202465E-1,1.8703195E0,2.6759195E-1,0E0,0E0,3.3521032E-1,0E0,9.767965E-1,1.1659803E0,3.5420537E-2,0E0,4.8297578E-1,3.9623123E-1,1.0564845E0,7.317867E-1,8.888672E-1,5.6113243E-1,9.0595627E-1,9.851475E-1,4.5593023E-1,1.647118E0,1.0323572E0,0E0,0E0,0E0,0E0,0E0,0E0,0E0,0E0,0E0,0E0,0E0,0E0,0E0,0E0,0E0,0E0,0E0,0E0,0E0,0E0,0E0,0E0,0E0,0E0,0E0,0E0,0E0,0E0,0E0,0E0,0E0,0E0,0E0,0E0,0E0,0E0,0E0,0E0,0E0,0E0,0E0,0E0,0E0,0E0,0E0,0E0,0E0],"parents":[2147483647,0,0,1,1,2,2,3,3,4,4,5,5,6,6,7,7,8,8,9,9,10,10,11,11,12,12,13,13,14,14,15,15,16,16,17,17,18,18,19,19,20,20,21,21,22,22,23,23,24,24,25,25,26,26,27,27,28,28,30,30,31,31,33,33,35,35,36,36,37,37,38,38,39,39,40,40,43,43,45,45,46,46,47,47,49,49,50,50,51,51,52,52,53,53,54,54,55,55,56,56,57,57,58,58,59,59],"right_children":[2,4,6,8,10,12,14,16,18,20,22,24,26,28,30,32,34,36,38,40,42,44,46,48,50,52,54,56,58,-1,60,62,-1,64,-1,66,68,70,72,74,76,-1,-1,78,-1,80,82,84,-1,86,88,90,92,94,96,98,100,102,104,106,-1,-1,-1,-1,-1,-1,-1,-1,-1,-1,-1,-1,-1,-1,-1,-1,-1,-1,-1,-1,-1,-1,-1,-1,-1,-1,-1,-1,-1,-1,-1,-1,-1,-1,-1,-1,-1,-1,-1,-1,-1,-1,-1,-1,-1,-1,-1],"split_conditions":[-5.522257E0,-5.144141E1,3.3659317E1,-1.0763551E2,-4.5498234E1,4.039108E0,1.5665884E3,1.5194437E3,1E0,2E0,-3.911036E1,1E0,1.5141239E3,1.4952751E3,3.673316E1,1.4991205E3,1.5454286E3,1.6027991E3,1.4042797E3,1.5385486E3,1.4981927E3,1.5462533E3,1.453447E3,1.580052E3,1.5221174E3,1.4958281E3,3.030133E1,1.5256727E3,7.743598E1,1.9737326E-1,1.2447059E2,1.4882095E3,2.0251898E-1,-1.2281785E2,2.1351139E-1,1.5692095E3,1.6468611E3,1.42321E3,2E0,1.479169E3,1E0,3.919475E-2,1.9927324E-1,1.4983789E3,-1.3229893E-1,1.4561094E3,1.480153E3,1.5385486E3,-1.6419137E-2,3.706478E0,2E0,5.2431607E0,5.951306E0,1.2550327E1,1.6428975E3,1.4981927E3,2E0,6.7253624E1,7.935913E1,5.8125805E1,-1.2370932E-1,1.3141005E-1,-1.5233696E-2,-3.3204455E-2,-1.5006167E-1,-2.2689776E-2,-1.7116328E-1,1.7349935E-1,-4.6156026E-2,1.8812992E-1,-1.5828079E-2,9.040711E-2,1.42009305E-2,-2.3915485E-2,1.9288133E-1,1.5056633E-3,-9.945199E-2,1.6277401E-1,8.7114975E-2,4.457558E-2,-5.4786347E-2,6.5910816E-2,2.9323315E-2,4.717488E-2,1.5883191E-1,-1.00529E-2,6.559627E-2,-7.030193E-2,4.936149E-2,-1.13324106E-1,-1.1408013E-2,-1.3107975E-2,-7.301384E-2,2.6625747E-2,-4.4968117E-2,1.3383971E-1,-5.389538E-2,-1.050717E-1,-4.376346E-2,-1.4224859E-1,-2.7333582E-2,-6.274311E-2,-1.3400003E-1,1.7393629E-1,-4.3402877E-2,-3.614148E-2,8.692425E-2],"split_indices":[2,2,2,2,2,2,1,0,3,4,2,4,1,1,2,0,0,0,0,1,0,0,0,0,1,0,2,0,2,0,2,0,0,2,0,0,0,1,3,0,4,0,0,1,0,1,0,1,0,2,4,2,2,2,0,0,4,2,2,2,0,0,0,0,0,0,0,0,0,0,0,0,0,0,0,0,0,0,0,0,0,0,0,0,0,0,0,0,0,0,0,0,0,0,0,0,0,0,0,0,0,0,0,0,0,0,0],"split_type":[0,0,0,0,0,0,0,0,0,0,0,0,0,0,0,0,0,0,0,0,0,0,0,0,0,0,0,0,0,0,0,0,0,0,0,0,0,0,0,0,0,0,0,0,0,0,0,0,0,0,0,0,0,0,0,0,0,0,0,0,0,0,0,0,0,0,0,0,0,0,0,0,0,0,0,0,0,0,0,0,0,0,0,0,0,0,0,0,0,0,0,0,0,0,0,0,0,0,0,0,0,0,0,0,0,0,0],"sum_hessian":[1.8003334E3,7.9489307E2,1.0054403E3,2.8400256E2,5.1089047E2,6.359856E2,3.6945474E2,9.409052E1,1.8991206E2,3.3645813E1,4.7724466E2,2.4302675E2,3.9295883E2,3.4204388E2,2.7410854E1,8.4853676E1,9.236842E0,5.7342634E0,1.841778E2,3.1592428E1,2.0533845E0,4.2796936E1,4.3444772E2,5.0472455E0,2.379795E2,3.2075137E2,7.220747E1,2.2233675E2,1.1970714E2,2.0924466E0,2.5318409E1,7.733677E1,7.5169053E0,5.4983206E0,3.7385216E0,3.0540571E0,2.6802063E0,1.550312E1,1.6867467E2,1.6661772E1,1.4930656E1,1.023644E0,1.0297406E0,4.0436344E1,2.3605924E0,3.5180733E1,3.9926697E2,3.284666E0,1.7625797E0,2.1455641E2,2.3423098E1,1.1916954E2,2.0158182E2,6.457276E1,7.63471E0,9.384494E1,1.284918E2,7.462086E1,4.508628E1,2.356664E1,1.7517681E0,7.159437E1,5.742405E0,2.9395647E0,2.5587559E0,1.058954E0,1.9951031E0,1.3491944E0,1.3310119E0,2.766874E0,1.2736247E1,1.6006938E2,8.605289E0,1.2778172E1,3.8835995E0,2.8476055E0,1.2083051E1,8.164153E0,3.227219E1,1.3894498E1,2.1286236E1,1.08342865E2,2.9092413E2,1.6062278E0,1.6784383E0,2.0766386E2,6.89255E0,2.1330624E1,2.092474E0,9.021184E0,1.1014835E2,2.0961617E1,1.8062021E2,2.423829E1,4.033447E1,6.438882E0,1.195828E0,3.7023876E1,5.6821068E1,1.2081841E2,7.6733894E0,6.5021355E1,9.599502E0,2.4004536E0,4.2685825E1,9.695053E0,1.3871588E1],"tree_param":{"num_deleted":"0","num_feature":"5","num_nodes":"107","size_leaf_vector":"1"}},{"base_weights":[1.1315835E-2,1.852022E-2,-3.2358718E-1,1.09184515E-2,1.549202E-1,-3.8375306E-1,1.3977362E-1,1.6846567E-2,-2.4724182E-1,1.7731331E-1,-3.080829E-1,-1.8218267E-1,-1.3812357E-1,1.3662751E-1,-1.372006E-1,2.1464061E-2,-1.9058423E-1,8.953807E-2,-2.9046994E-1,6.1866486E-1,1.5445054E-1,-1.2217528E-1,-1.1309935E-2,-1.4125103E-1,1.7366745E-1,4.1626316E-2,-9.975163E-2,-1.4008585E-1,2.7729802E-2,-3.085736E-1,3.2126775E-1,-7.902815E-2,-3.3329117E-1,5.8456995E-2,2.1768041E-1,-2.2995092E-1,1.8608092E-1,1.5984479E-1,-1.24096975E-1,-1.1209806E-1,-6.72428E-3,7.2953746E-2,7.21369E-3,-1.0586591E-1,-1.4278838E-2,1.3687634E-1,1.6796725E-2,-7.3502585E-2,8.668023E-2,-1.1160097E-1,-2.9707128E-2,2.9280126E-2,-1.2511162E-1,2.4169808E-2,8.933588E-2,6.578191E-2,-1.0750376E-1],"categories":[],"categories_nodes":[],"categories_segments":[],"categories_sizes":[],"default_left":[0,0,0,0,0,0,0,0,0,0,0,0,0,0,0,0,0,0,0,0,0,0,0,0,0,0,0,0,0,0,0,0,0,0,0,0,0,0,0,0,0,0,0,0,0,0,0,0,0,0,0,0,0,0,0,0,0],"id":10,"left_children":[1,3,5,7,9,11,13,15,17,19,21,23,-1,-1,25,27,29,-1,31,33,35,-1,-1,-1,37,-1,-1,39,41,43,45,47,49,-1,-1,51,53,-1,55,-1,-1,-1,-1,-1,-1,-1,-1,-1,-1,-1,-1,-1,-1,-1,-1,-1,-1],"loss_changes":[3.7459986E0,1.5726988E0,9.651873E-1,2.2068932E0,8.848939E-1,3.67424E-1,4.5509538E-1,1.3526292E0,8.5035515E-1,6.8161345E-1,9.349927E-2,1.0783226E0,0E0,0E0,2.1646653E-1,1.3989184E0,1.9568286E0,0E0,2.4984336E-1,1.5444994E-2,9.493346E-1,0E0,0E0,0E0,6.0892683E-1,0E0,0E0,1.4104687E0,1.0479034E0,2.7819204E-1,1.9834238E-1,4.6459785E-1,1.9038892E-1,0E0,0E0,4.1549093E-1,7.945044E-1,0E0,3.6701983E-1,0E0,0E0,0E0,0E0,0E0,0E0,0E0,0E0,0E0,0E0,0E0,0E0,0E0,0E0,0E0,0E0,0E0,0E0],"parents":[2147483647,0,0,1,1,2,2,3,3,4,4,5,5,6,6,7,7,8,8,9,9,10,10,11,11,14,14,15,15,16,16,18,18,19,19,20,20,24,24,27,27,28,28,29,29,30,30,31,31,32,32,35,35,36,36,38,38],"right_children":[2,4,6,8,10,12,14,16,18,20,22,24,-1,-1,26,28,30,-1,32,34,36,-1,-1,-1,38,-1,-1,40,42,44,46,48,50,-1,-1,52,54,-1,56,-1,-1,-1,-1,-1,-1,-1,-1,-1,-1,-1,-1,-1,-1,-1,-1,-1,-1],"split_conditions":[1.4800856E2,2E0,1.5172549E3,2E0,1.6640857E3,1.5835505E3,1.530135E3,1.120108E2,1.4855358E3,1.4778569E3,1.518362E3,1.548457E3,-1.3812357E-1,1.3662751E-1,1.711797E2,-1.0763551E2,1.431309E2,8.953807E-2,1.5062604E3,2E0,1.480153E3,-1.2217528E-1,-1.1309935E-2,-1.4125103E-1,1.3843575E3,4.1626316E-2,-9.975163E-2,1.4042797E3,1.3923768E3,1.6578848E3,1.6428975E3,1.5012732E3,1.6428975E3,5.8456995E-2,2.1768041E-1,1.4261174E3,1.543961E3,1.5984479E-1,1.558964E2,-1.1209806E-1,-6.72428E-3,7.2953746E-2,7.21369E-3,-1.0586591E-1,-1.4278838E-2,1.3687634E-1,1.6796725E-2,-7.3502585E-2,8.668023E-2,-1.1160097E-1,-2.9707128E-2,2.9280126E-2,-1.2511162E-1,2.4169808E-2,8.933588E-2,6.578191E-2,-1.0750376E-1],"split_indices":[2,4,1,3,1,0,1,2,0,1,0,0,0,0,2,2,2,0,0,3,0,0,0,0,1,0,0,0,0,0,0,0,0,0,0,0,1,0,2,0,0,0,0,0,0,0,0,0,0,0,0,0,0,0,0,0,0],"split_type":[0,0,0,0,0,0,0,0,0,0,0,0,0,0,0,0,0,0,0,0,0,0,0,0,0,0,0,0,0,0,0,0,0,0,0,0,0,0,0,0,0,0,0,0,0,0,0,0,0,0,0,0,0,0,0,0,0],"sum_hessian":[1.5490879E3,1.5173906E3,3.1697187E1,1.4383115E3,7.907913E1,2.8206476E1,3.4907124E0,1.4069388E3,3.1372692E1,7.601949E1,3.0596392E0,8.701879E0,1.9504597E1,1.3303282E0,2.1603842E0,1.3771788E3,2.9760035E1,1.8694081E0,2.9503284E1,2.4605327E0,7.355896E1,1.8682315E0,1.1914077E0,4.6261573E0,4.0757213E0,1.0153292E0,1.1450549E0,5.0622368E1,1.3265564E3,2.4507776E1,5.2522583E0,5.447964E0,2.405532E1,1.0643795E0,1.3961532E0,5.115902E0,6.8443054E1,1.489624E0,2.5860972E0,1.6230297E1,3.4392075E1,2.1209747E1,1.3053467E3,2.064943E1,3.858346E0,3.0038483E0,2.2484102E0,3.984695E0,1.4632692E0,2.0139395E1,3.9159253E0,2.0336778E0,3.0822241E0,3.6081936E1,3.2361122E1,1.0746986E0,1.5113987E0],"tree_param":{"num_deleted":"0","num_feature":"5","num_nodes":"57","size_leaf_vector":"1"}},{"base_weights":[-3.3410024E-3,-1.9505252E-1,1.3663965E-1,-3.5642415E-1,-1.282684E-1,1.11181185E-1,3.8470328E-1,-4.5318046E-1,-3.366919E-1,-1.8546626E-1,-7.33864E-2,1.2148818E-1,-1.2078409E-1,4.325553E-1,-2.5555387E-1,-5.155508E-1,-2.5903128E-2,-2.7541736E-1,-3.724035E-1,-2.0412652E-2,-2.0845985E-1,-6.3966386E-2,-3.644568E-1,9.1313556E-2,2.0396712E-1,-3.349925E-1,1.2024522E-1,4.9590665E-1,2.5599015E-1,-4.411909E-1,-5.309959E-2,-5.43865E-1,-1.9745144E-1,7.622071E-2,-2.4440417E-1,-3.0768523E-1,1.039171E-2,-4.230139E-1,-2.6856413E-1,-8.720092E-2,3.8955802E-1,-2.4158826E-1,-1.3168213E-1,-2.8293628E-1,-5.2243307E-2,-9.223156E-2,-1.6443822E-1,1.0451869E-1,-5.1354263E-2,2.189244E-1,-4.98048E-1,-2.0822556E-1,-5.4585797E-1,-2.087993E-1,1.9323882E-1,3.943096E-1,5.516905E-1,-2.2366643E-1,3.0629098E-1,-1.4802101E-3,-1.7208083E-1,1.5031259E-1,-1.2007587E-1,-4.436369E-2,-1.6717362E-1,9.1947444E-2,-1.4313129E-1,-1.2186502E-1,-4.753957E-3,-7.893606E-2,-1.5258276E-1,4.3785006E-2,-1.3197666E-1,-1.1231195E-1,-1.759004E-1,-6.13969E-2,-1.3975309E-1,-2.312222E-5,-1.7729656E-1,2.0742624E-1,-1.3621324E-1,-7.540297E-2,4.4929963E-2,8.9595646E-2,-4.786848E-2,-3.4119297E-2,-1.408647E-1,1.9491531E-1,-1.7640263E-2,6.90004E-2,-9.242532E-2,2.9577455E-2,1.2114574E-1,-7.222786E-2,1.2643314E-2,-2.1019861E-2,6.7811504E-2,-1.7437848E-1,-5.6502443E-2,-8.7157995E-2,6.676288E-3,-6.620157E-2,-1.781887E-1,2.4020597E-2,-1.2590934E-1,1.0942907E-1,-2.523669E-2,1.5118144E-1,2.516133E-2,1.6999595E-1,5.334863E-2,-1.2463752E-2,-9.5013246E-2,-6.565225E-2,1.0718189E-1,-3.9201085E-2,1.4007129E-1],"categories":[],"categories_nodes":[],"categories_segments":[],"categories_sizes":[],"default_left":[0,0,0,0,0,0,0,0,0,0,0,0,0,0,0,0,0,0,0,0,0,0,0,0,0,0,0,0,0,0,0,0,0,0,0,0,0,0,0,0,0,0,0,0,0,0,0,0,0,0,0,0,0,0,0,0,0,0,0,0,0,0,0,0,0,0,0,0,0,0,0,0,0,0,0,0,0,0,0,0,0,0,0,0,0,0,0,0,0,0,0,0,0,0,0,0,0,0,0,0,0,0,0,0,0,0,0,0,0,0,0,0,0,0,0,0,0],"id":11,"left_children":[1,3,5,7,9,11,13,15,17,19,21,23,25,27,29,31,33,35,37,39,41,43,45,47,49,51,53,55,57,59,61,63,65,-1,67,69,71,73,75,77,79,81,83,85,87,89,-1,91,93,95,97,99,101,103,105,107,109,111,113,-1,-1,115,-1,-1,-1,-1,-1,-1,-1,-1,-1,-1,-1,-1,-1,-1,-1,-1,-1,-1,-1,-1,-1,-1,-1,-1,-1,-1,-1,-1,-1,-1,-1,-1,-1,-1,-1,-1,-1,-1,-1,-1,-1,-1,-1,-1,-1,-1,-1,-1,-1,-1,-1,-1,-1,-1,-1],"loss_changes":[5.676014E1,9.573879E0,7.677641E0,3.451767E-1,1.9731035E0,2.6687994E0,3.5841866E0,1.0865326E0,3.798046E-1,1.1694021E0,8.668034E-1,2.6278915E0,2.5045495E0,1.0572262E0,2.965212E-1,2.165165E-1,4.48111E-1,7.87189E-1,6.0338783E-1,1.0997089E0,6.583147E-1,7.9554987E-1,4.4764757E-1,1.4755287E0,3.0913086E0,5.6889796E-1,5.9743285E-1,2.1797562E-1,7.928368E-1,2.4580348E-1,4.2799243E-1,8.954525E-2,7.817312E-1,0E0,1.4348736E-1,5.504327E-1,6.496906E-1,4.953537E-1,5.028348E-1,1.5048678E0,1.7490141E0,7.566757E-1,1.0552375E0,4.4596982E-1,1.4230978E0,4.3370155E-1,0E0,1.2278595E0,1.1927752E0,5.8898926E-1,5.109501E-2,3.39635E-1,9.253025E-3,3.1943673E-1,9.585042E-1,1.0040059E0,1.627121E-1,4.4920787E-2,8.1693864E-1,0E0,0E0,4.178536E-1,0E0,0E0,0E0,0E0,0E0,0E0,0E0,0E0,0E0,0E0,0E0,0E0,0E0,0E0,0E0,0E0,0E0,0E0,0E0,0E0,0E0,0E0,0E0,0E0,0E0,0E0,0E0,0E0,0E0,0E0,0E0,0E0,0E0,0E0,0E0,0E0,0E0,0E0,0E0,0E0,0E0,0E0,0E0,0E0,0E0,0E0,0E0,0E0,0E0,0E0,0E0,0E0,0E0,0E0,0E0],"parents":[2147483647,0,0,1,1,2,2,3,3,4,4,5,5,6,6,7,7,8,8,9,9,10,10,11,11,12,12,13,13,14,14,15,15,16,16,17,17,18,18,19,19,20,20,21,21,22,22,23,23,24,24,25,25,26,26,27,27,28,28,29,29,30,30,31,31,32,32,34,34,35,35,36,36,37,37,38,38,39,39,40,40,41,41,42,42,43,43,44,44,45,45,47,47,48,48,49,49,50,50,51,51,52,52,53,53,54,54,55,55,56,56,57,57,58,58,61,61],"right_children":[2,4,6,8,10,12,14,16,18,20,22,24,26,28,30,32,34,36,38,40,42,44,46,48,50,52,54,56,58,60,62,64,66,-1,68,70,72,74,76,78,80,82,84,86,88,90,-1,92,94,96,98,100,102,104,106,108,110,112,114,-1,-1,116,-1,-1,-1,-1,-1,-1,-1,-1,-1,-1,-1,-1,-1,-1,-1,-1,-1,-1,-1,-1,-1,-1,-1,-1,-1,-1,-1,-1,-1,-1,-1,-1,-1,-1,-1,-1,-1,-1,-1,-1,-1,-1,-1,-1,-1,-1,-1,-1,-1,-1,-1,-1,-1,-1,-1],"split_conditions":[-4.412952E-1,-4.695471E1,1.120108E2,-1.3925078E2,-1.4662755E1,2E0,1.5366558E3,2E0,1.5428899E3,1.452471E3,2E0,4.65219E1,2E0,1.485356E3,1.5490093E3,1.491801E3,1.4681333E3,1.5374194E3,1.524158E3,-1.9057125E1,1.5344504E3,1.4582058E3,1.5073616E3,1.5344504E3,1.6692994E3,1.5241731E3,1.4857136E3,1.5615236E3,1.6220442E3,1.5420718E3,1.5832839E3,1.4592266E3,1.5046654E3,7.622071E-2,1.5126642E3,1.529517E3,1.4908578E3,-6.167423E1,1.6640857E3,-2.2308502E1,-1.5604539E1,2E0,1.5001339E3,1.4409824E3,1.4592266E3,-8.304429E0,-1.6443822E-1,2E0,1.5490093E3,1.445041E3,8.318088E1,1.5098125E3,1.07323065E1,1.5151078E3,1.5318945E3,1.548457E3,2E0,1.4957789E3,1.4901925E3,-1.4802101E-3,-1.7208083E-1,1.570312E3,-1.2007587E-1,-4.436369E-2,-1.6717362E-1,9.1947444E-2,-1.4313129E-1,-1.2186502E-1,-4.753957E-3,-7.893606E-2,-1.5258276E-1,4.3785006E-2,-1.3197666E-1,-1.1231195E-1,-1.759004E-1,-6.13969E-2,-1.3975309E-1,-2.312222E-5,-1.7729656E-1,2.0742624E-1,-1.3621324E-1,-7.540297E-2,4.4929963E-2,8.9595646E-2,-4.786848E-2,-3.4119297E-2,-1.408647E-1,1.9491531E-1,-1.7640263E-2,6.90004E-2,-9.242532E-2,2.9577455E-2,1.2114574E-1,-7.222786E-2,1.2643314E-2,-2.1019861E-2,6.7811504E-2,-1.7437848E-1,-5.6502443E-2,-8.7157995E-2,6.676288E-3,-6.620157E-2,-1.781887E-1,2.4020597E-2,-1.2590934E-1,1.0942907E-1,-2.523669E-2,1.5118144E-1,2.516133E-2,1.6999595E-1,5.334863E-2,-1.2463752E-2,-9.5013246E-2,-6.565225E-2,1.0718189E-1,-3.9201085E-2,1.4007129E-1],"split_indices":[2,2,2,2,2,4,1,4,1,0,4,2,3,1,1,0,0,1,0,2,1,1,0,1,0,1,1,0,0,1,1,1,0,0,0,1,0,2,1,2,2,3,0,0,1,2,0,3,1,0,2,1,2,0,1,0,4,1,1,0,0,1,0,0,0,0,0,0,0,0,0,0,0,0,0,0,0,0,0,0,0,0,0,0,0,0,0,0,0,0,0,0,0,0,0,0,0,0,0,0,0,0,0,0,0,0,0,0,0,0,0,0,0,0,0,0,0],"split_type":[0,0,0,0,0,0,0,0,0,0,0,0,0,0,0,0,0,0,0,0,0,0,0,0,0,0,0,0,0,0,0,0,0,0,0,0,0,0,0,0,0,0,0,0,0,0,0,0,0,0,0,0,0,0,0,0,0,0,0,0,0,0,0,0,0,0,0,0,0,0,0,0,0,0,0,0,0,0,0,0,0,0,0,0,0,0,0,0,0,0,0,0,0,0,0,0,0,0,0,0,0,0,0,0,0,0,0,0,0,0,0,0,0,0,0,0,0],"sum_hessian":[2.1130889E3,8.915993E2,1.2214896E3,2.597131E2,6.3188617E2,1.1091111E3,1.1237854E2,4.0272434E1,2.1944066E2,3.0824976E2,3.236364E2,1.0623822E3,4.6728928E1,1.0486543E2,7.5131073E0,3.4962334E1,5.3101015E0,8.400899E1,1.3543167E2,3.792225E1,2.703275E2,3.1467233E2,8.964091E0,7.7936237E2,2.8301978E2,2.4534607E1,2.2194323E1,7.584405E1,2.9021385E1,3.3041818E0,4.2089257E0,3.1452951E1,3.5093803E0,2.2562792E0,3.0538225E0,7.541777E1,8.591213E0,8.898663E1,4.644504E1,3.32868E1,4.635449E0,1.873446E2,8.298291E1,1.4814998E1,2.9985733E2,4.216625E0,4.747466E0,7.1358167E2,6.5780716E1,2.777893E2,5.230486E0,1.6564146E1,7.9704604E0,3.6917846E0,1.8502539E1,2.9742933E1,4.6101116E1,2.4274294E0,2.6593956E1,1.0108851E0,2.2932968E0,3.0114186E0,1.1975071E0,1.4219804E0,3.0030972E1,1.2181913E0,2.291189E0,1.3328768E0,1.7209456E0,6.361704E1,1.1800734E1,7.1228952E0,1.4683176E0,7.1102806E1,1.788382E1,3.661966E1,9.825381E0,2.9231693E1,4.0551076E0,3.5467312E0,1.0887177E0,1.8313747E2,4.2071404E0,4.458065E0,7.852485E1,8.613983E0,6.201014E0,1.8675239E0,2.979898E2,1.665203E0,2.5514224E0,7.010283E2,1.2553365E1,2.121974E1,4.4560978E1,6.461306E0,2.71328E2,3.4316406E0,1.7988452E0,1.2013698E1,4.5504484E0,1.7471384E0,6.2233224E0,1.8196933E0,1.8720913E0,1.1237784E1,7.264754E0,2.1520023E1,8.222909E0,4.383124E1,2.269876E0,1.3099374E0,1.1174922E0,2.0620122E0,2.4531944E1,1.9065595E0,1.1048591E0],"tree_param":{"num_deleted":"0","num_feature":"5","num_nodes":"117","size_leaf_vector":"1"}},{"base_weights":[-6.580839E-3,1.245112E-1,-1.5137558E-1,2.3788704E-1,7.46729E-2,-1.1282729E-1,-2.609734E-1,3.054853E-1,1.8877088E-1,9.242074E-2,1.8204971E-3,-1.22907706E-1,1.0775303E-1,-3.6928502E-1,-9.623185E-2,3.3253142E-1,1.1418878E-1,2.4585046E-1,1.359974E-1,-3.2237116E-2,1.0115106E-1,-1.5965629E-1,3.270123E-2,1.6040908E-1,-1.3166164E-1,2.3344183E-1,-2.5235817E-1,-1.8952388E-1,-4.2424697E-1,-1.394824E-1,3.9456627E-1,2.6245415E-1,4.1285953E-1,-1.3821664E-1,4.346796E-1,5.6458786E-2,2.7928093E-1,-4.576411E-1,1.6722274E-1,-7.8861535E-2,4.658648E-1,2.1490127E-1,8.176147E-2,-3.556612E-1,-7.482496E-2,2.0006733E-1,1.012977E-2,-2.4437343E-1,2.3616143E-1,-2.8239307E-1,-1.17613725E-1,7.146556E-1,2.0955698E-5,5.4073412E-2,-3.476322E-1,-3.6776605E-1,-1.3666799E-2,-4.4098768E-1,-1.7618434E-1,-2.0181333E-1,-1.6612353E-2,5.316994E-1,-2.737107E-2,8.987501E-2,-4.008113E-2,1.5684044E-1,7.7074766E-2,-9.748469E-2,5.2998472E-2,1.871408E-1,2.7006445E-2,6.016922E-2,-1.4083228E-1,2.0273738E-1,7.569569E-2,-1.5695792E-1,-4.9397398E-2,-3.3567376E-2,5.9328157E-2,2.5120191E-2,-7.688415E-2,3.0987741E-2,1.7926614E-1,7.870351E-2,-2.5042116E-3,-1.7950885E-2,2.7946021E-2,-2.807179E-2,-1.4743951E-1,8.548356E-2,-4.0380098E-2,1.0801974E-1,-2.5124859E-2,-5.9234817E-2,1.644023E-2,2.4820552E-3,-1.0922683E-1,8.0964845E-3,1.3575722E-1,-5.2568786E-2,-1.20225675E-1,1.11796826E-1,-3.798304E-2,7.23868E-3,2.6712635E-1,-1.0958488E-1,3.0390171E-2,-1.3135003E-1,-1.3873901E-2,-1.23039074E-1,1.122464E-2,-3.3248235E-2,1.0811014E-1,-1.1859893E-1,-1.4974271E-1,1.0208445E-1,-9.1436595E-2,-7.233131E-2,4.2119637E-2,1.9350916E-2,-1.052608E-1,2.1188073E-1,3.0573395E-3],"categories":[],"categories_nodes":[],"categories_segments":[],"categories_sizes":[],"default_left":[0,0,0,0,0,0,0,0,0,0,0,0,0,0,0,0,0,0,0,0,0,0,0,0,0,0,0,0,0,0,0,0,0,0,0,0,0,0,0,0,0,0,0,0,0,0,0,0,0,0,0,0,0,0,0,0,0,0,0,0,0,0,0,0,0,0,0,0,0,0,0,0,0,0,0,0,0,0,0,0,0,0,0,0,0,0,0,0,0,0,0,0,0,0,0,0,0,0,0,0,0,0,0,0,0,0,0,0,0,0,0,0,0,0,0,0,0,0,0,0,0,0,0],"id":12,"left_children":[1,3,5,7,9,11,13,15,17,19,21,23,25,27,29,31,33,35,37,39,41,43,45,47,49,51,53,55,57,59,61,63,65,67,69,71,73,75,77,79,81,83,85,87,89,91,93,95,97,99,101,103,105,-1,107,109,111,113,115,117,119,121,-1,-1,-1,-1,-1,-1,-1,-1,-1,-1,-1,-1,-1,-1,-1,-1,-1,-1,-1,-1,-1,-1,-1,-1,-1,-1,-1,-1,-1,-1,-1,-1,-1,-1,-1,-1,-1,-1,-1,-1,-1,-1,-1,-1,-1,-1,-1,-1,-1,-1,-1,-1,-1,-1,-1,-1,-1,-1,-1,-1,-1],"loss_changes":[3.3410675E1,5.202285E0,3.503996E0,8.774204E-1,8.3145857E-1,1.3929367E0,3.8340225E0,5.668621E-1,4.658084E-1,5.66103E-1,6.385873E-1,1.4939327E0,1.3103977E0,1.2088108E0,1.9097633E0,4.6525097E-1,1.3546782E0,4.8050165E-1,1.7143098E0,8.4045553E-1,1.0489688E0,3.1526053E-1,4.03905E-1,6.172986E-1,1.1877031E0,2.3605704E0,3.7731084E-1,1.0093608E0,3.3394623E-1,6.1728096E-1,5.3732085E-1,8.8068247E-1,6.497474E-1,6.2842643E-1,4.1916656E-1,1.0803516E0,5.390086E-1,3.788054E-3,7.4382544E-1,9.5902336E-1,8.6622596E-2,7.415924E-1,6.746073E-1,1.6558635E-1,3.7419373E-1,6.076006E-1,8.9858186E-1,1.0489045E-1,7.0652294E-1,5.442128E-1,2.381094E0,8.116398E-1,5.975694E-1,0E0,1.591165E-1,2.9056048E-1,6.6968054E-1,4.7466278E-2,6.305541E-1,7.5554276E-1,7.9166317E-1,5.270722E-1,0E0,0E0,0E0,0E0,0E0,0E0,0E0,0E0,0E0,0E0,0E0,0E0,0E0,0E0,0E0,0E0,0E0,0E0,0E0,0E0,0E0,0E0,0E0,0E0,0E0,0E0,0E0,0E0,0E0,0E0,0E0,0E0,0E0,0E0,0E0,0E0,0E0,0E0,0E0,0E0,0E0,0E0,0E0,0E0,0E0,0E0,0E0,0E0,0E0,0E0,0E0,0E0,0E0,0E0,0E0,0E0,0E0,0E0,0E0,0E0,0E0],"parents":[2147483647,0,0,1,1,2,2,3,3,4,4,5,5,6,6,7,7,8,8,9,9,10,10,11,11,12,12,13,13,14,14,15,15,16,16,17,17,18,18,19,19,20,20,21,21,22,22,23,23,24,24,25,25,26,26,27,27,28,28,29,29,30,30,31,31,32,32,33,33,34,34,35,35,36,36,37,37,38,38,39,39,40,40,41,41,42,42,43,43,44,44,45,45,46,46,47,47,48,48,49,49,50,50,51,51,52,52,54,54,55,55,56,56,57,57,58,58,59,59,60,60,61,61],"right_children":[2,4,6,8,10,12,14,16,18,20,22,24,26,28,30,32,34,36,38,40,42,44,46,48,50,52,54,56,58,60,62,64,66,68,70,72,74,76,78,80,82,84,86,88,90,92,94,96,98,100,102,104,106,-1,108,110,112,114,116,118,120,122,-1,-1,-1,-1,-1,-1,-1,-1,-1,-1,-1,-1,-1,-1,-1,-1,-1,-1,-1,-1,-1,-1,-1,-1,-1,-1,-1,-1,-1,-1,-1,-1,-1,-1,-1,-1,-1,-1,-1,-1,-1,-1,-1,-1,-1,-1,-1,-1,-1,-1,-1,-1,-1,-1,-1,-1,-1,-1,-1,-1,-1],"split_conditions":[-4.412952E-1,-5.144141E1,5.405239E1,-9.776068E1,-5.522257E0,1.596512E3,1.4952751E3,1.5194437E3,1.4829434E3,-4.5498234E1,1.4829153E3,1.4505349E3,4.311937E1,1.518362E3,1.5969106E3,1.5856041E3,1.5454286E3,1.4803132E3,1.5428899E3,2E0,-3.5599735E1,-4.1307664E0,1.487927E3,1.3701343E3,1.4582058E3,1.5817946E3,1.5547816E3,1.4118258E3,2E0,1.0295271E2,1.6355004E3,1.5796624E3,1.6314622E3,-1.0763551E2,-1.0763551E2,1.4759402E3,1.4850035E3,1.4846442E3,-9.055569E1,1.5385486E3,1.4981927E3,1.5194437E3,1.452471E3,1.4429546E3,1.4388099E3,-3.2256556E0,1.4942241E3,1.3105936E3,1.630847E1,1.4766377E3,1.4612241E3,3.030133E1,1.6182609E3,5.4073412E-2,1.6468611E3,1.711797E2,7.935913E1,1.5692095E3,6.937714E1,2E0,2E0,8.318088E1,-2.737107E-2,8.987501E-2,-4.008113E-2,1.5684044E-1,7.7074766E-2,-9.748469E-2,5.2998472E-2,1.871408E-1,2.7006445E-2,6.016922E-2,-1.4083228E-1,2.0273738E-1,7.569569E-2,-1.5695792E-1,-4.9397398E-2,-3.3567376E-2,5.9328157E-2,2.5120191E-2,-7.688415E-2,3.0987741E-2,1.7926614E-1,7.870351E-2,-2.5042116E-3,-1.7950885E-2,2.7946021E-2,-2.807179E-2,-1.4743951E-1,8.548356E-2,-4.0380098E-2,1.0801974E-1,-2.5124859E-2,-5.9234817E-2,1.644023E-2,2.4820552E-3,-1.0922683E-1,8.0964845E-3,1.3575722E-1,-5.2568786E-2,-1.20225675E-1,1.11796826E-1,-3.798304E-2,7.23868E-3,2.6712635E-1,-1.0958488E-1,3.0390171E-2,-1.3135003E-1,-1.3873901E-2,-1.23039074E-1,1.122464E-2,-3.3248235E-2,1.0811014E-1,-1.1859893E-1,-1.4974271E-1,1.0208445E-1,-9.1436595E-2,-7.233131E-2,4.2119637E-2,1.9350916E-2,-1.052608E-1,2.1188073E-1,3.0573395E-3],"split_indices":[2,2,2,2,2,0,1,0,0,2,1,0,2,0,1,1,0,1,1,4,2,2,0,1,1,1,1,1,4,2,1,1,1,2,2,1,1,0,2,1,0,0,0,0,0,2,0,1,2,0,1,2,0,0,0,2,2,0,2,4,4,2,0,0,0,0,0,0,0,0,0,0,0,0,0,0,0,0,0,0,0,0,0,0,0,0,0,0,0,0,0,0,0,0,0,0,0,0,0,0,0,0,0,0,0,0,0,0,0,0,0,0,0,0,0,0,0,0,0,0,0,0,0],"split_type":[0,0,0,0,0,0,0,0,0,0,0,0,0,0,0,0,0,0,0,0,0,0,0,0,0,0,0,0,0,0,0,0,0,0,0,0,0,0,0,0,0,0,0,0,0,0,0,0,0,0,0,0,0,0,0,0,0,0,0,0,0,0,0,0,0,0,0,0,0,0,0,0,0,0,0,0,0,0,0,0,0,0,0,0,0,0,0,0,0,0,0,0,0,0,0,0,0,0,0,0,0,0,0,0,0,0,0,0,0,0,0,0,0,0,0,0,0,0,0,0,0,0,0],"sum_hessian":[1.7581832E3,9.2282776E2,8.353555E2,2.8063818E2,6.421896E2,6.1949365E2,2.158619E2,1.15902565E2,1.6473561E2,5.1617395E2,1.2601564E2,5.9284375E2,2.6649868E1,1.2948715E2,8.637473E1,1.0089885E2,1.5003714E1,7.73815E1,8.735411E1,3.3607594E1,4.8256635E2,1.9560867E1,1.0645477E2,1.7249449E1,5.755943E2,2.0015614E1,6.6342535E0,3.1361856E1,9.81253E1,8.0037415E1,6.337322E0,5.6166847E1,4.4732002E1,8.711572E0,6.292142E0,1.2013125E1,6.536837E1,3.6827965E0,8.367131E1,3.1500675E1,2.1069188E0,6.880926E1,4.1375708E2,4.9443207E0,1.4616547E1,1.17161875E1,9.473859E1,2.3683302E0,1.4881119E1,4.744256E1,5.2815173E2,5.864294E0,1.415132E1,1.0364186E0,5.597835E0,1.5033343E1,1.6328514E1,9.119331E1,6.9319825E0,5.2673897E1,2.7363518E1,4.8685474E0,1.4687747E0,5.1575397E1,4.5914483E0,2.4855854E1,1.9876148E1,5.4484763E0,3.263095E0,3.5398278E0,2.7523143E0,9.914904E0,2.098222E0,2.6297603E0,6.2738613E1,2.3673756E0,1.3154209E0,7.988919E0,7.5682396E1,1.671253E1,1.4788145E1,1.0367782E0,1.0701406E0,5.6604755E1,1.2204501E1,3.0492565E1,3.832645E2,2.264014E0,2.680307E0,1.5458148E0,1.3070732E1,7.320618E0,4.395569E0,1.6171598E1,7.8566986E1,1.0607111E0,1.3076192E0,8.138138E0,6.742981E0,2.6200665E1,2.1241896E1,8.788513E0,5.193632E2,1.4205774E0,4.4437165E0,2.5059543E0,1.1645366E1,3.9599385E0,1.6378965E0,1.3599247E1,1.4340967E0,1.3520157E1,2.8083568E0,5.545377E1,3.5739544E1,1.0538476E0,5.8781347E0,4.7514034E1,5.159862E0,2.2669298E1,4.694219E0,3.3821313E0,1.4864163E0],"tree_param":{"num_deleted":"0","num_feature":"5","num_nodes":"123","size_leaf_vector":"1"}},{"base_weights":[1.4005026E-2,1.9479768E-2,-2.7807468E-1,-3.565146E-2,3.4458697E-2,-3.4164754E-1,1.399213E-1,2.8932909E-2,-9.5303416E-2,1.06954135E-1,1.4975553E-2,-1.3836761E-1,-4.2651224E-1,1.2809952E-1,-1.2689455E-1,1.3210848E-2,4.7021815E-1,-7.3030226E-2,-2.4081835E-1,1.729456E-1,4.9727906E-2,5.245504E-1,1.2856132E-2,-1.3242917E-1,1.8135984E-1,-1.3558035E-1,-2.0774597E-1,3.6795508E-2,-9.355495E-2,7.639696E-2,-9.111157E-2,1.4847641E-2,6.3962E-1,-9.014755E-2,4.9104157E-1,-3.0567443E-1,-1.0363781E-1,1.4017563E-1,4.941095E-1,3.7278377E-2,1.7242916E-1,-7.424764E-3,2.3199263E-1,5.0427862E-3,1.5128897E-1,1.4156617E-1,-9.450782E-2,-1.1669215E-3,-9.5749706E-2,-9.927822E-2,3.317223E-2,-1.2238344E-1,-1.8769288E-2,2.4083509E-1,5.257341E-2,-1.225426E-1,-2.3206007E-2,2.026983E-1,1.8019846E-2,-1.4770693E-1,-6.1273742E-2,5.840404E-2,-7.3407546E-2,3.488045E-2,1.4237265E-1,1.8363005E-1,3.813531E-2,1.722404E-2,-9.064708E-2,3.508936E-3,-7.0068486E-2,2.3733277E-2,9.816234E-2,6.6115655E-2,-9.999498E-2],"categories":[],"categories_nodes":[],"categories_segments":[],"categories_sizes":[],"default_left":[0,0,0,0,0,0,0,0,0,0,0,0,0,0,0,0,0,0,0,0,0,0,0,0,0,0,0,0,0,0,0,0,0,0,0,0,0,0,0,0,0,0,0,0,0,0,0,0,0,0,0,0,0,0,0,0,0,0,0,0,0,0,0,0,0,0,0,0,0,0,0,0,0,0,0],"id":13,"left_children":[1,3,5,7,9,11,13,15,17,19,21,23,25,-1,27,29,31,33,35,37,39,41,43,-1,45,-1,47,-1,-1,49,51,-1,53,55,57,59,61,63,65,67,-1,-1,-1,69,71,-1,73,-1,-1,-1,-1,-1,-1,-1,-1,-1,-1,-1,-1,-1,-1,-1,-1,-1,-1,-1,-1,-1,-1,-1,-1,-1,-1,-1,-1],"loss_changes":[2.4690294E0,1.25088E0,8.0280924E-1,1.2502048E0,1.6798427E0,3.7144065E-1,3.9582115E-1,1.0777466E0,5.2872324E-1,9.4307256E-1,1.0078685E0,9.3557775E-1,1.3418198E-3,0E0,1.8052536E-1,1.0081844E0,3.4936202E-1,1.4695755E0,1.6352189E-1,1.1582603E0,8.6993676E-1,5.47408E-1,1.0122709E0,0E0,4.457518E-1,0E0,8.1286505E-2,0E0,0E0,1.361052E0,4.968198E-1,0E0,1.417464E-1,5.5534756E-1,3.1768632E-1,1.7180026E-1,4.0766415E-1,8.021002E-1,3.7265205E-1,9.35084E-1,0E0,0E0,0E0,1.4118528E0,6.0903347E-1,0E0,3.291756E-1,0E0,0E0,0E0,0E0,0E0,0E0,0E0,0E0,0E0,0E0,0E0,0E0,0E0,0E0,0E0,0E0,0E0,0E0,0E0,0E0,0E0,0E0,0E0,0E0,0E0,0E0,0E0,0E0],"parents":[2147483647,0,0,1,1,2,2,3,3,4,4,5,5,6,6,7,7,8,8,9,9,10,10,11,11,12,12,14,14,15,15,16,16,17,17,18,18,19,19,20,20,21,21,22,22,24,24,26,26,29,29,30,30,32,32,33,33,34,34,35,35,36,36,37,37,38,38,39,39,43,43,44,44,46,46],"right_children":[2,4,6,8,10,12,14,16,18,20,22,24,26,-1,28,30,32,34,36,38,40,42,44,-1,46,-1,48,-1,-1,50,52,-1,54,56,58,60,62,64,66,68,-1,-1,-1,70,72,-1,74,-1,-1,-1,-1,-1,-1,-1,-1,-1,-1,-1,-1,-1,-1,-1,-1,-1,-1,-1,-1,-1,-1,-1,-1,-1,-1,-1,-1],"split_conditions":[1.4800856E2,1.480153E3,1.5172549E3,1.4803132E3,-1.6121948E1,1.5835505E3,1.530135E3,1.479517E3,-1.5604539E1,1.5024016E3,1.4805712E3,1.548457E3,1.6996538E3,1.2809952E-1,1.711797E2,1.4617952E3,1.4505349E3,-1.7215183E1,1.478364E3,1.5E3,1.6468611E3,1.4778569E3,2E0,-1.3242917E-1,1.3843575E3,-1.3558035E-1,1.4738485E3,3.6795508E-2,-9.355495E-2,-7.492995E1,1.42321E3,1.4847641E-2,1.4697747E3,1.4835309E3,1.474505E3,-1.328548E1,-1.1050322E1,2E0,-2.3681726E1,1.6730441E3,1.7242916E-1,-7.424764E-3,2.3199263E-1,2E0,1.5508093E3,1.4156617E-1,1.558964E2,-1.1669215E-3,-9.5749706E-2,-9.927822E-2,3.317223E-2,-1.2238344E-1,-1.8769288E-2,2.4083509E-1,5.257341E-2,-1.225426E-1,-2.3206007E-2,2.026983E-1,1.8019846E-2,-1.4770693E-1,-6.1273742E-2,5.840404E-2,-7.3407546E-2,3.488045E-2,1.4237265E-1,1.8363005E-1,3.813531E-2,1.722404E-2,-9.064708E-2,3.508936E-3,-7.0068486E-2,2.3733277E-2,9.816234E-2,6.6115655E-2,-9.999498E-2],"split_indices":[2,0,1,1,2,0,1,1,2,0,0,0,0,0,2,0,0,2,0,0,0,1,4,0,1,0,1,0,0,2,1,0,0,1,0,2,2,3,2,1,0,0,0,3,1,0,2,0,0,0,0,0,0,0,0,0,0,0,0,0,0,0,0,0,0,0,0,0,0,0,0,0,0,0,0],"split_type":[0,0,0,0,0,0,0,0,0,0,0,0,0,0,0,0,0,0,0,0,0,0,0,0,0,0,0,0,0,0,0,0,0,0,0,0,0,0,0,0,0,0,0,0,0,0,0,0,0,0,0,0,0,0,0,0,0,0,0,0,0,0,0,0,0,0,0,0,0,0,0,0,0,0,0],"sum_hessian":[1.539662E3,1.5122496E3,2.74123E1,3.2279495E2,1.1894547E3,2.395209E1,3.4602106E0,1.5523697E2,1.67558E2,2.5100238E2,9.384523E2,7.8291206E0,1.6122969E1,1.3776246E0,2.082586E0,1.5089098E2,4.3459897E0,1.4661786E2,2.0940138E1,1.1563436E2,1.3536803E2,2.8660576E0,9.3558624E2,3.8238897E0,4.005231E0,1.34895525E1,2.6334164E0,1.0298903E0,1.0526956E0,9.413991E1,5.6751072E1,1.6184841E0,2.7275054E0,1.4311507E2,3.502786E0,1.3384135E1,7.556002E0,1.0623148E2,9.402875E0,1.3327875E2,2.0892737E0,1.1740563E0,1.6920013E0,8.8658264E2,4.900356E1,1.6047001E0,2.4005308E0,1.2964005E0,1.3370159E0,6.615342E0,8.752457E1,3.5922444E0,5.3158825E1,1.4790761E0,1.2484294E0,4.3348436E0,1.3878023E2,2.0548077E0,1.4479783E0,3.3549848E0,1.0029151E1,2.3036935E0,5.252309E0,1.0040114E2,5.8303504E0,6.609868E0,2.7930071E0,1.26599785E2,6.678963E0,8.634555E2,2.312714E1,3.5775047E1,1.3228509E1,1.0686091E0,1.3319218E0],"tree_param":{"num_deleted":"0","num_feature":"5","num_nodes":"75","size_leaf_vector":"1"}},{"base_weights":[-4.8474707E-3,-1.8887621E-1,8.605128E-2,-3.0055612E-1,-1.2725781E-1,4.921757E-2,2.1237132E-1,-4.4966957E-1,-2.8657004E-1,-7.662639E-2,-1.685779E-1,-1.0613569E-2,8.127329E-2,2.384948E-1,-1.9640924E-1,-5.496689E-1,-7.044784E-3,-2.1878181E-1,-3.11635E-1,-1.1095055E-1,-1.1308035E-3,-2.747357E-1,-1.2366187E-1,-2.209783E-1,2.8860674E-3,8.929076E-2,-1.116754E-1,2.0173413E-1,4.0555483E-1,-4.586156E-2,-4.4522384E-1,-1.7461315E-1,-3.67927E-2,7.607775E-2,-1.1415737E-1,-4.304704E-2,-2.5415882E-1,-3.474876E-1,-2.149844E-1,-3.0117417E-2,-1.5208346E-1,3.3462128E-1,-2.7341293E-2,-6.203917E-2,-3.1414732E-1,-2.8142953E-1,-9.615228E-2,-1.2154991E-1,-4.4929704E-1,2.718686E-1,-2.044222E-2,8.122025E-2,3.8700983E-1,-3.2922596E-1,-1.7624376E-2,2.1356316E-1,-3.4076965E-1,4.3739378E-1,-4.353404E-2,2.5181842E-1,-4.2643228E-1,-1.4781605E-1,-2.8430989E-2,-4.677571E-2,1.2772346E-1,-9.1266945E-2,-2.5823323E-2,2.2419661E-2,-1.0567771E-1,-4.8469402E-2,-1.1181901E-1,-8.138291E-2,1.449015E-2,-7.400689E-2,-1.5100578E-2,1.38196E-1,4.6233404E-3,1.4203939E-1,-1.3279468E-2,-8.6893454E-2,1.7788654E-2,-3.7942044E-2,-1.026942E-1,-1.00434676E-1,7.543225E-2,-3.2771487E-2,4.0249996E-2,-7.060986E-2,8.538104E-2,-1.959879E-1,-4.7882736E-2,5.85175E-2,1.4849377E-1,-1.05408214E-1,-3.286292E-3,2.9620543E-2,-2.1660808E-3,-4.0914893E-2,1.5696912E-1,1.9561745E-2,-1.720809E-1,8.046919E-2,-5.8205146E-2,6.834743E-2,-7.8471925E-4,1.3809531E-2,-1.3709521E-1,-1.666951E-2,1.3508444E-1,-7.637793E-2,5.746204E-2,-7.241005E-2,1.8546571E-1,-3.208034E-2,-1.6485298E-1],"categories":[],"categories_nodes":[],"categories_segments":[],"categories_sizes":[],"default_left":[0,0,0,0,0,0,0,0,0,0,0,0,0,0,0,0,0,0,0,0,0,0,0,0,0,0,0,0,0,0,0,0,0,0,0,0,0,0,0,0,0,0,0,0,0,0,0,0,0,0,0,0,0,0,0,0,0,0,0,0,0,0,0,0,0,0,0,0,0,0,0,0,0,0,0,0,0,0,0,0,0,0,0,0,0,0,0,0,0,0,0,0,0,0,0,0,0,0,0,0,0,0,0,0,0,0,0,0,0,0,0,0,0,0,0],"id":14,"left_children":[1,3,5,7,9,11,13,15,17,19,21,23,25,27,29,31,33,35,37,39,41,43,45,47,49,51,53,55,57,59,61,-1,-1,-1,-1,63,65,67,69,71,73,75,77,79,81,83,85,87,89,91,93,95,97,99,101,103,105,107,109,111,113,-1,-1,-1,-1,-1,-1,-1,-1,-1,-1,-1,-1,-1,-1,-1,-1,-1,-1,-1,-1,-1,-1,-1,-1,-1,-1,-1,-1,-1,-1,-1,-1,-1,-1,-1,-1,-1,-1,-1,-1,-1,-1,-1,-1,-1,-1,-1,-1,-1,-1,-1,-1,-1,-1],"loss_changes":[3.4525272E1,4.6575947E0,6.417759E0,3.7561226E-1,9.1071606E-1,2.0549014E0,3.3743734E0,8.364873E-1,3.122654E-1,5.187187E-1,1.1211843E0,1.0641681E0,1.0889215E0,1.7196369E0,7.0123607E-1,1.4254427E-1,5.356961E-1,3.8569427E-1,4.835739E-1,4.5303714E-1,5.687573E-1,5.774379E-1,7.19677E-1,4.583578E-1,2.2200098E0,1.5788732E0,5.726132E-1,1.6284628E0,7.613621E-1,1.5934767E0,7.228005E-2,0E0,0E0,0E0,0E0,6.957855E-1,4.1899085E-1,2.5980568E-1,3.292272E-1,9.1447866E-1,8.632591E-1,1.811902E-1,5.2872103E-1,3.5901403E-1,2.7298212E-1,7.957063E-1,4.6080267E-1,8.5803103E-1,2.7891302E-1,3.873036E-1,1.0186722E0,1.0134234E0,1.3135228E0,8.5440594E-1,1.1005001E0,7.339401E-1,2.708937E-1,3.335848E-1,2.6441303E-1,1.5928937E0,1.8223345E-1,0E0,0E0,0E0,0E0,0E0,0E0,0E0,0E0,0E0,0E0,0E0,0E0,0E0,0E0,0E0,0E0,0E0,0E0,0E0,0E0,0E0,0E0,0E0,0E0,0E0,0E0,0E0,0E0,0E0,0E0,0E0,0E0,0E0,0E0,0E0,0E0,0E0,0E0,0E0,0E0,0E0,0E0,0E0,0E0,0E0,0E0,0E0,0E0,0E0,0E0,0E0,0E0,0E0,0E0],"parents":[2147483647,0,0,1,1,2,2,3,3,4,4,5,5,6,6,7,7,8,8,9,9,10,10,11,11,12,12,13,13,14,14,15,15,16,16,17,17,18,18,19,19,20,20,21,21,22,22,23,23,24,24,25,25,26,26,27,27,28,28,29,29,30,30,35,35,36,36,37,37,38,38,39,39,40,40,41,41,42,42,43,43,44,44,45,45,46,46,47,47,48,48,49,49,50,50,51,51,52,52,53,53,54,54,55,55,56,56,57,57,58,58,59,59,60,60],"right_children":[2,4,6,8,10,12,14,16,18,20,22,24,26,28,30,32,34,36,38,40,42,44,46,48,50,52,54,56,58,60,62,-1,-1,-1,-1,64,66,68,70,72,74,76,78,80,82,84,86,88,90,92,94,96,98,100,102,104,106,108,110,112,114,-1,-1,-1,-1,-1,-1,-1,-1,-1,-1,-1,-1,-1,-1,-1,-1,-1,-1,-1,-1,-1,-1,-1,-1,-1,-1,-1,-1,-1,-1,-1,-1,-1,-1,-1,-1,-1,-1,-1,-1,-1,-1,-1,-1,-1,-1,-1,-1,-1,-1,-1,-1,-1,-1],"split_conditions":[-7.1075406E0,-4.695471E1,5.8125805E1,-1.7835307E2,1.5056115E3,5.5989866E0,1.560866E3,2E0,1.529517E3,1.4972112E3,1.4942241E3,1.4641184E3,2E0,1.4800856E2,1E0,1.486325E3,1.4681333E3,-1.0046595E2,1.524158E3,1.453447E3,1.4976748E3,1.4760752E3,1E0,1.023249E0,1.479169E3,2E0,1.7609028E1,1.664037E3,1.5275703E3,1.5856041E3,1.6996538E3,-1.7461315E-1,-3.67927E-2,7.607775E-2,-1.1415737E-1,1.3993075E3,1.452471E3,1.3791567E3,1.6640857E3,1.4223256E3,-1.3773809E1,1.4805712E3,-4.2781494E1,1.5089874E3,1.507254E3,1.647371E3,1.5722712E3,-1.0168077E0,3.4175751E0,1.4799802E3,1.481859E3,1.5472657E3,1.2195715E1,1.1424758E1,3.1776804E1,2E0,1.5404827E3,1.4582783E3,1.5327223E3,1.5726223E3,1E0,-1.4781605E-1,-2.8430989E-2,-4.677571E-2,1.2772346E-1,-9.1266945E-2,-2.5823323E-2,2.2419661E-2,-1.0567771E-1,-4.8469402E-2,-1.1181901E-1,-8.138291E-2,1.449015E-2,-7.400689E-2,-1.5100578E-2,1.38196E-1,4.6233404E-3,1.4203939E-1,-1.3279468E-2,-8.6893454E-2,1.7788654E-2,-3.7942044E-2,-1.026942E-1,-1.00434676E-1,7.543225E-2,-3.2771487E-2,4.0249996E-2,-7.060986E-2,8.538104E-2,-1.959879E-1,-4.7882736E-2,5.85175E-2,1.4849377E-1,-1.05408214E-1,-3.286292E-3,2.9620543E-2,-2.1660808E-3,-4.0914893E-2,1.5696912E-1,1.9561745E-2,-1.720809E-1,8.046919E-2,-5.8205146E-2,6.834743E-2,-7.8471925E-4,1.3809531E-2,-1.3709521E-1,-1.666951E-2,1.3508444E-1,-7.637793E-2,5.746204E-2,-7.241005E-2,1.8546571E-1,-3.208034E-2,-1.6485298E-1],"split_indices":[2,2,2,2,1,2,1,4,1,1,0,0,4,2,3,0,0,2,0,0,1,0,4,2,0,3,2,0,1,1,0,0,0,0,0,0,0,0,1,0,2,0,2,1,1,1,0,2,2,1,0,0,2,2,2,4,1,0,1,1,4,0,0,0,0,0,0,0,0,0,0,0,0,0,0,0,0,0,0,0,0,0,0,0,0,0,0,0,0,0,0,0,0,0,0,0,0,0,0,0,0,0,0,0,0,0,0,0,0,0,0,0,0,0,0],"split_type":[0,0,0,0,0,0,0,0,0,0,0,0,0,0,0,0,0,0,0,0,0,0,0,0,0,0,0,0,0,0,0,0,0,0,0,0,0,0,0,0,0,0,0,0,0,0,0,0,0,0,0,0,0,0,0,0,0,0,0,0,0,0,0,0,0,0,0,0,0,0,0,0,0,0,0,0,0,0,0,0,0,0,0,0,0,0,0,0,0,0,0,0,0,0,0,0,0,0,0,0,0,0,0,0,0,0,0,0,0,0,0,0,0,0,0],"sum_hessian":[2.0619517E3,6.8138275E2,1.3805688E3,2.4089543E2,4.404873E2,1.0699666E3,3.106023E2,1.7985935E1,2.229095E2,1.9922366E2,2.4126363E2,3.735027E2,6.9646387E2,2.9233682E2,1.8265472E1,1.4474063E1,3.5118718E0,6.2798695E1,1.6011081E2,1.3663345E2,6.259021E1,7.0209274E1,1.7105435E2,2.1596432E1,3.5190625E2,6.6919446E2,2.726938E1,2.4142096E2,5.0915867E1,1.21178E1,6.1476717E0,1.3116616E1,1.357447E0,2.2574701E0,1.2544016E0,1.0894962E1,5.1903732E1,1.1489507E2,4.5215733E1,4.666365E1,8.99698E1,3.6802406E0,5.890997E1,1.1378103E1,5.8831173E1,2.402731E1,1.4702704E2,1.6112236E1,5.4841967E0,2.7234127E1,3.2467212E2,6.527721E2,1.6422415E1,7.4760146E0,1.9793365E1,2.3686263E2,4.5583396E0,4.7569393E1,3.346474E0,6.9892035E0,5.128597E0,5.056434E0,1.0912372E0,9.318686E0,1.5762769E0,3.9367752E1,1.2535981E1,1.1200497E0,1.13775024E2,3.5289375E1,9.926355E0,1.0846868E1,3.5816784E1,4.588298E1,4.4086826E1,2.3208199E0,1.3594209E0,1.0438416E0,5.786613E1,3.4740849E0,7.904018E0,8.393778E0,5.0437397E1,2.2178467E1,1.848843E0,1.3961998E2,7.4070616E0,1.291388E1,3.198355E0,2.4815493E0,3.0026474E0,2.1653683E1,5.580444E0,8.045055E0,3.1662708E2,5.447688E2,1.0800326E2,3.3912404E0,1.3031175E1,3.140435E0,4.33558E0,7.3544297E0,1.2438935E1,2.2215303E2,1.4709594E1,1.1926608E0,3.3656785E0,1.1275752E0,4.644182E1,1.7195553E0,1.6269188E0,3.1246235E0,3.86458E0,1.9459451E0,3.1826515E0],"tree_param":{"num_deleted":"0","num_feature":"5","num_nodes":"115","size_leaf_vector":"1"}},{"base_weights":[-7.1458574E-3,9.454186E-2,-1.24246456E-1,2.2038403E-1,6.71615E-2,-7.886395E-2,-1.9723819E-1,4.0623194E-1,1.992338E-1,1.1172531E-1,3.7903223E-2,1.2005634E-1,-8.8484816E-2,-2.8116655E-1,-8.4651485E-2,5.7086134E-1,-1.6952215E-2,1.828835E-1,1.8792681E-1,1.2054663E-1,-1.279068E-1,3.308167E-2,1.4058754E-1,3.1539977E-2,4.6441156E-1,-3.0946627E-1,-7.6219745E-2,-1.4876454E-1,-3.8206637E-1,-1.1244546E-1,2.6562572E-1,1.8715163E-1,8.889648E-3,-1.5686074E-1,1.671704E-1,-2.417898E-1,2.0412925E-1,1.2451766E-1,-1.2985094E-1,-2.4454074E-1,1.7710377E-1,3.9543554E-2,-3.9796507E-1,1.4117825E-1,-4.225398E-2,2.2899841E-1,1.2666078E-3,-1.616609E-1,-1.64547E-1,4.915471E-3,-1.0114085E-1,-1.0791115E-1,-4.0244633E-1,-4.0814993E-1,-4.118862E-2,-9.901545E-2,-3.81938E-1,3.9537284E-1,-1.1710206E-1,4.1156195E-2,-2.1558757E-1,7.04205E-2,2.8177386E-2,3.600541E-2,1.7025389E-1,-1.3043225E-1,-3.426396E-2,1.2240201E-1,-3.1820703E-2,9.582624E-3,1.0525764E-1,-1.5043496E-1,-5.048071E-2,-1.3528536E-1,1.012422E-2,-1.2144906E-1,1.2605746E-2,-3.8150813E-2,1.5317705E-2,-4.083673E-2,-6.105963E-3,-4.0154308E-2,1.5536307E-1,-1.2871495E-1,-2.6970442E-2,-1.2569292E-1,-5.307217E-2,1.6283341E-1,-8.108947E-2,-3.8779143E-2,4.332477E-2,-1.5235901E-1,-4.2282917E-2,1.526073E-1,-8.934206E-3],"categories":[],"categories_nodes":[],"categories_segments":[],"categories_sizes":[],"default_left":[0,0,0,0,0,0,0,0,0,0,0,0,0,0,0,0,0,0,0,0,0,0,0,0,0,0,0,0,0,0,0,0,0,0,0,0,0,0,0,0,0,0,0,0,0,0,0,0,0,0,0,0,0,0,0,0,0,0,0,0,0,0,0,0,0,0,0,0,0,0,0,0,0,0,0,0,0,0,0,0,0,0,0,0,0,0,0,0,0,0,0,0,0,0,0],"id":15,"left_children":[1,3,5,7,9,11,13,15,17,19,21,23,25,27,29,31,33,-1,35,37,39,41,-1,43,45,47,49,51,53,55,57,-1,-1,-1,-1,59,61,63,-1,65,67,69,71,-1,73,-1,-1,75,-1,77,79,81,83,85,87,89,91,93,-1,-1,-1,-1,-1,-1,-1,-1,-1,-1,-1,-1,-1,-1,-1,-1,-1,-1,-1,-1,-1,-1,-1,-1,-1,-1,-1,-1,-1,-1,-1,-1,-1,-1,-1,-1,-1],"loss_changes":[2.0509607E1,3.1616983E0,2.6361303E0,5.6489086E-1,9.8487043E-1,9.584589E-1,2.869831E0,1.1121979E0,5.790305E-1,6.498873E-1,9.386631E-1,6.947396E-1,1.258394E0,2.2812214E0,1.3170741E0,3.090129E-1,1.8609822E0,0E0,1.0722408E0,6.911788E-1,